{"layers": [{"layer": "ReLU", "weight": [[0.6274721490061719, 1.1902287643768867, 1.267646205130063, -1.075886621345949, -0.00029793526767078786, -1.3302984564810911, 1.0550249874510762, 1.590806544387521, -2.056719875049726, 0.5027450050932357, 0.5479157966645332, 0.3496582705223489, 2.2109240964943, -0.02816197427770866, -1.6119756502830676, 0.20050340807211975, -0.28497496962888086, -1.1772063924596297, 0.7901445434404893, -0.10676481208748681, -1.3160060998234224, -2.6515781410586277, -1.9774334187625144, 0.3247446727566727, 0.9440244108631957, 2.3356921908022317, -2.342197041040476, 1.4592508412813014, -0.18891781555858275, 0.610880635670062, 1.1381103051395816, 0.3310156068990301, 0.863551622429901, 0.3935223665908436, 1.566529510638186, 0.2228159595745146, -0.8873534024843356, 1.0921787759080333, 1.7991709684780643, -1.4133294134091747, 1.546924548480941, -0.7952186557235774, 0.39686042254585163, -2.7324767007049773, -1.0586181267527415, -0.0497684175413229, -0.14850752170330303, 0.4950030196797863, 0.798445808356804, 1.3194954191871144, 2.108095239303231, 1.100274192147252, -0.9213733579020965, 1.4822152150726935, 0.07316474503902202, -1.8705894862887853, -0.4384370761198297, 0.45369757726093685, 0.4237457195369616, 0.4422679277790613, 0.7952391998776523, 0.7664471882704921, 1.0595115177069139, -2.4443213499817884], [-0.23489590026122242, 1.0238940956942701, -0.5755271084738436, 0.7012503926887994, 0.43857813307998017, 2.172848688332463, -1.458577261698844, 0.4194892458256758, 2.4162511011796473, -0.7987111596832818, 0.09712035295227002, 0.4624492809484564, 0.18784848882791294, 1.6895819193821957, 1.746662278392253, 0.9945824383042821, 1.0904617668061132, -2.2927142005466337, -0.6420316747144577, -0.790490804497342, -0.289631971693165, 1.8634769236803121, -1.188422193434807, -2.8455656162126974, -0.7616010748342523, 1.867802344722483, 1.215018258931763, 2.9973659357518105, -0.8914430482501343, 1.9844445481577897, -0.8082870577456297, -0.021643193141666628, 1.19070921417806, 2.451277775496556, -0.04711876723726888, 1.257217913087151, 1.1546120763818297, -2.459518754016957, -1.6529410195229097, 0.1790963589973979, 0.3862880596934305, -0.07719540397216758, -0.979179731118745, -1.6538319245833983, -0.629792295837491, 0.5203947908048381, -0.34425485774825976, 0.7073570865517338, -0.4061735724158009, -0.6093251289302949, -0.2596932146695387, -1.9238195272136769, -1.40082813865546, -1.199519274849763, -0.37094850665502704, -0.9948757243509874, -0.15312422986212043, -1.8453563471185246, 1.1543330487806163, 1.0214293535518384, -3.470271238794471, -0.6107730985331346, 1.2914502142498834, 1.2520072946401772], [0.721590735703479, 0.022103941646576572, -0.49657757543234937, 0.446668097559025, -1.259500103931906, -0.13403817533600684, -0.010297907641286356, -1.0253838896099057, -0.05907538736554183, -0.616033516576522, -1.7859806839686418, -0.16818520460861855, -0.6647142075714575, -0.49878944044547746, 1.620114708094895, 0.9911779838396586, 0.438310724300868, -1.3879036596929262, 0.37010643460972614, -0.8571552639601759, -1.6231115642432685, 1.6355839661862317, -2.332738388837765, -1.3191500573785284, -1.1746193168781232, -2.0463385528758344, 2.3559683859078473, -0.02716093407591645, -0.9668422665384391, -0.9180333208352988, -3.6035436569999746, -1.6746590533939045, 1.4627855806947736, -1.0418143684072665, 0.3830277394353422, -0.7088023552465247, -0.15585217859451186, 0.6141225777879395, -0.6332479447109375, 1.4362352493942097, -1.2871161329930203, -0.19802931129323464, 0.2221290076445434, -0.10202390759136212, 0.45621521442759594, -0.37890017280053884, -0.29121144878226607, -0.032944372145796263, 2.072973690438482, 0.9537907903142481, -1.4418606565525174, -1.933888774169404, -1.3669680731545377, 0.8348026451911845, 2.7635245648985873, -1.187645071586045, -1.2622106160153301, 1.4270180507582488, 0.780600599559196, 1.0314034164643724, -0.22885452972442613, 0.6804906514425711, 0.017109606585306025, -0.07467949947620482], [-2.3585504485942534, -0.49362830590751466, -0.6081622327340143, 1.4782808185317764, 2.5107312872301466, 1.9257039626839605, -2.0683417915774136, -0.2568951587341143, 0.6871406881149186, -0.5146890569627575, -0.618691320409222, -3.9032418207119117, 1.3669765055737777, -1.7598425043334656, -1.2238607347882355, 1.0310575539320987, 0.8619871632357593, -0.16726296384106965, 0.6166900861431217, -0.37475848909850834, 0.1903363077092746, 1.233327519922999, -1.503791229090574, -0.41205350178823946, -1.5070622349022769, 1.003408482814417, 0.8320074523773174, -0.7038968354342822, 0.7774018162007958, -1.9671246028880816, 0.5964053828952345, -0.6580972413727201, -0.8044965684134938, 0.5846063761834301, -0.6298065636015266, 1.5499365311806346, -0.11267821200368568, -1.0863163182096884, 0.542626118930739, 0.8505652878914649, 0.04210665792816388, 1.0317131312670478, 0.6945159309994671, 0.11986958447142296, -2.474076866725668, -0.4232837279397932, -2.133295832612189, 2.198750153071808, 2.0099784280498376, -1.150574886953519, 0.7730637814092272, 1.9282607519278492, 0.45309291376269706, -2.2648630516829793, 0.7497145829797821, -0.7372399843397204, -1.145684868567953, 2.26417764588692, -0.08693127512991779, -0.7271350840394621, -0.1175411371188896, -0.9565263065138513, -1.2856334120971156, 0.24702720183519317], [-0.5869575392248749, 1.2760655586363685, 0.6525174387295087, 0.5109688797603686, -0.5351102703565476, -0.0952839572099779, 2.105134908867378, -0.2839521651158659, -0.4981730545853096, 0.4357829739119193, 0.9863316682158437, 0.8656151804679327, -0.1967420865120878, -0.6161027034556921, 1.8906844874680055, -1.8213590480243218, -1.545528284537443, 0.7553033231891231, 2.1523965228252857, -0.4884411587857007, 0.7745065030263664, -0.3923249000796734, -1.8251204139295871, -1.7481246434323077, -0.6827649971717373, 0.442155874649841, -0.5821455760975391, 0.21391537357875093, -1.172466994167907, -0.20488164025037683, 1.1868981734473631, 1.0856466282192672, -0.2773538648985425, -1.0093588368679454, 0.1939112808262617, -0.6327238019176372, 0.6062101360145711, -1.567926353724711, 1.3852764975303138, -1.270894948690594, 0.5006481197250681, -1.3958571818901995, 1.1083848023173923, -1.2948568895738013, 0.8668053861617714, -0.6359113346064977, -1.9415702613389458, 0.3176643760307046, -2.072962526728611, -0.7643542718899985, 0.17627809102542194, -0.4806771343578496, 2.3818908985377067, 0.7479178478529678, 0.22914446473330527, 0.6609955761740935, 1.5503841225411148, 1.633122904258127, 0.3742925683195852, -1.3747538615831763, 1.0617707818332685, 0.11447718295804549, -0.3002503503521922, 0.1983665147701132], [0.7497066283960737, 2.362045473861127, 0.9755651007258241, 0.4170011609431524, 1.6224625950466318, -0.5558978763364361, 0.8927512371705226, -1.2027893718665723, -2.9373621177349274, 2.254885356801142, -2.0199419257624527, -0.05469659655344407, -0.7608492862137355, 1.5116506135945347, 1.0143512510845456, 1.4123969884071776, -0.767151469628097, -0.34552784855844954, 0.43301290823836974, -1.983737334796297, -1.3952458630088553, -0.5854707588381418, 0.210688398491621, -0.34818869808927333, 3.323087278512265, -2.5997062454971127, -1.6250239599407406, -0.590870861802215, 1.951923764421998, 1.492684539500193, 2.2901960668735297, -0.6886242115720995, 1.039591383313495, -2.3541190829083147, 0.3274220843060702, -0.038792365820736384, 0.8667949157012421, 0.30198437275565027, -0.06220341066716715, -1.0164201944038056, 0.5645144335806374, -0.9160821794278043, 0.11568706421712599, -0.2886575912906498, 1.1695883147803596, -2.040382060370523, 1.5453521238986123, -0.019325501831386715, -0.20206310110783324, -0.34814510001984644, 1.7826293872548407, 0.27174570033002754, 1.3791243055147666, 0.16651871428056284, -0.5015547426898193, 2.7731873425416182, -2.788106358813443, 1.1043010368853186, -1.884123064081054, 2.547932819669473, 0.2576937111109648, -0.7308845085576584, -0.29007867047760044, -0.34202838743833297], [1.8835767206778973, 1.2926826043960655, -0.20242069389378747, 1.030067917428805, -0.617005874796402, -3.134172867318116, -2.064495651312091, -0.35623179909645963, 0.7822080302152624, 0.3733394598688213, -0.4924762540928035, -0.26144176428848775, -0.319670827605409, 0.15903636603189483, 0.8263604753257691, -0.7516610643922995, 1.3881236410036206, -0.0991421938577995, -2.527798888904462, -0.6290716865787663, 0.8752443434469204, 2.9784180891081724, 0.5005744959681888, 0.724078306286467, 1.0658197468783748, 0.2824678316259794, -1.6986768793166853, 4.0833258755403214, -1.274801641427596, -0.6947811515000444, -1.7206195572835523, -0.6358207119470682, -1.0616129343922212, -1.074261822883392, -0.06043515893741105, -0.3378720199188422, 0.23660195245137294, 0.1570608169716773, 0.7423165091088297, 3.074475337252383, -0.6480151066595842, 0.21977929240570118, 0.13267256049662382, -0.6626739000915849, 1.5836314264412925, -1.2979001026138786, -2.5473565618305223, -0.8096557841575684, 0.4363416530295801, -1.6168148936928393, -1.8302005968783295, 1.045109003187478, 1.0130975065850711, 1.1033135441401178, -0.8616009069199478, -1.696602246287068, 1.3597198730503752, 0.5807539942418453, 0.9805759153516064, -1.2913026159242413, 1.0837880269573352, -0.29598831700308376, 2.02837718062629, -0.7488898891416219], [-1.2740711571154355, 1.965881740420029, 0.5748712126908291, -0.5836278829951981, 0.23433442208543082, 0.9718253673818906, -0.6003433450845097, 0.5830718472175592, -0.6294149986792534, 0.3996363173119416, 1.259829385582321, -0.17710698710842737, 1.6963919926695579, 0.17150660390470046, -0.7588734553746758, -0.6426551403760921, 0.6993809367289192, 0.112762167653943, 0.5281803987272128, -0.5600059665889725, -0.03386491744484371, -1.7245485543939663, 1.0779034515638444, -1.648820765590343, 1.4111709061239621, -0.7727719091911781, 0.4569269980980346, -2.1460161585245303, 0.24622367873804796, 0.32572584707704866, -0.27118677378765726, -0.8421713645537585, -1.5147588135378787, -0.3470377992059363, 0.6533091046649189, 0.7255019999952206, 0.8187742360960334, 2.3241509988291535, -0.46467540991461853, -0.4993522069745212, -1.4449289461471182, 1.3441291762111005, -1.2711277563595447, -0.7687232035333202, 2.336123861140255, 0.38996920898405746, 1.7689172364092962, 0.5229426005658958, -1.447392034846981, 0.30805827954853526, -0.5043937655055524, 0.21223782550038386, -0.7105384281837038, -0.3262958845090612, 2.855932873881087, -0.15907026269283478, 0.14448197065154647, -1.4180658888710922, -0.5530160278764383, -0.28082621448212797, -0.10114160184693993, 1.4400593082287965, 0.4535518196294963, -0.04986832871557489], [1.3784477627186003, -0.9745779409333604, 2.0030952690732127, 1.3024946917281028, 0.5339915031437377, -2.638741722144723, -1.8450480591703815, 0.482566028877151, 0.12551842997172058, 0.4654900479162605, -0.8425100241571677, 1.924205568738335, -1.419099562897304, 1.1454753963405138, -0.197925467588467, 0.08519207825068582, -0.9505270851605204, -1.1702019009030427, 1.5256707465311237, -3.167826810269166, 0.23357426390617897, -1.665429385486051, 0.1559238605866039, -0.49834398497206694, -1.4180225007056737, -1.4019003225994726, -0.8265850069935776, 0.7605448377516847, -1.1942242691808982, -0.8339067521853205, -0.21621010361049478, 0.18622778101920615, -0.6563584680037167, -0.5942911163068472, -2.0213337667600717, 0.5813205936403166, 1.37982909620274, -0.6447716438492109, 0.9465936190533418, 0.2666716176331119, -0.004283015174106128, 0.39338681518565377, -1.8770583879399634, -0.16067128004514258, 0.20490719518883074, 0.6028317859162978, -0.409125786698729, -1.349540414492235, 0.8419245531079734, -0.7845832169563021, -0.4604642211682589, -1.5673898147805145, 0.42929336901249515, 1.2015806759372485, 0.93593763948203, 0.7678036448825715, 1.6041795949083186, -0.35266796301008946, 0.5577604058565877, -0.19335246753860708, 0.7652228599148402, 0.8604659022684396, 0.8773019133312546, -0.03894586777421327], [-2.151238200725854, -0.008108746538413777, -3.2057647764218595, 0.2891641438966374, 0.0014393055925314342, 0.22309505547025665, -1.8442960591919053, -1.076308904521484, -2.283434960093912, 0.44635775420506446, -2.2997874070131084, 0.2326683668702827, 1.098492995046076, 0.2375290074073596, -0.45370984865375996, -3.747659007553856, -0.9454590048188527, -0.3484356651920453, 2.7771373371581713, -3.7352305685085456, 1.7083771498066496, 1.4478182693872907, 0.6210836037251163, 0.7862317542051858, 1.3181010083130225, -1.3296016764690062, -0.34756255827850097, 1.8058207397792625, 0.5018529345849972, -0.41037778345733195, -2.720863624069667, 0.7409851801511184, 0.8924984653728376, -0.7429538182759056, 0.0009257855611712821, -2.6290524584697397, 0.3229909619494278, -1.0993511582709439, 1.8338434834362356, 0.4285651509326461, 0.20704824459591215, 1.131204468798413, 0.43176843655478614, 0.7072521675082222, 0.702746106500654, 1.3920634878113736, 0.5763542446589357, 0.28332009145368725, -0.5156285838585869, -2.0985667292188332, 0.29877922554465836, 0.33352114741887, -0.6162082348322101, 2.0248120065264117, -0.5273846977311955, 0.8002506857073459, 0.33348412267290006, 0.0423458560449303, 0.9980389661362623, -2.4500507139550867, 1.873191778050995, -0.05196122720419719, -1.2952063418501274, 1.06815316879282], [0.22528182959665763, -0.14529129317670117, -1.203848122458952, -1.524345824121267, -0.3933939316044625, 0.1929095246747581, 1.6788793913366693, -0.9698896006246778, -1.218014276718832, 1.6252498865557685, 0.5881845191204662, -0.7060372261026632, 1.592305195104265, -0.7669365695615827, 2.0164374027045096, 0.3804019984902365, 1.6276608204480294, 0.29053873520445206, -1.1030089237599732, 0.4147307557483994, 0.7798713384520052, 1.8772942243853756, 3.371096743996887, -1.109363246675725, 0.6971630200790473, -2.3010410005467996, 0.5019224620592542, 0.013970724121364101, -0.1852524155558037, -0.2545562439610414, -1.2619525342588473, -0.8569930926963317, -0.16788888271573021, 1.1430098296539775, 1.0769379543490936, -1.014006206457132, -0.7785830458833259, 0.664730586603421, 1.1969102445588635, -0.5529667889721289, -0.9403569933619249, -1.5065621314312403, 0.20031216780057914, 1.7800033290557382, 0.6371772262732147, -2.9512727030645562, -0.8767968770208595, 1.5030992924361934, 1.5935502215208117, 1.069653649807386, 1.1405131505975832, 0.9793220452865337, 0.1782426938283122, -0.6158303252374248, 1.2159574131457889, -0.4544718762198349, 0.3676922839661902, 0.19366162454151192, -0.8824846393685658, -0.5923913473540473, 1.416800302611332, -2.4749228347268546, 1.6490251139139696, -0.2764129355558939], [0.3010130185215055, -0.8959322407584873, -0.30153321925002274, 1.6496902661388388, -1.3303736358084588, 0.2695127902237125, 0.5431765606669865, 1.5333895583539938, 0.5477711404965088, -0.6883361675815328, -0.27085183469709156, 0.34073784698585413, -1.6921314233401876, 0.9627628530293475, -1.7589985577367606, 1.4679143362892269, 1.2502919147223102, -0.8679792357074168, 0.9252549004325431, -0.6077678049183514, 1.3066270640281465, 0.3396627904265188, -0.4472968348021725, -0.9297319648167557, -0.57311918916357, 0.09731631627273658, 0.28510002131857726, -0.6074285398512346, -0.6537304715716395, 0.17039007219567423, 1.4755699516460277, -0.38738161913783536, 1.0067089010701646, 1.186074797587237, -0.09182360159012704, -2.9301729530020304, 1.9506933280317165, 0.8714075323326229, 0.3469065503341344, 2.1784493292617726, -1.1425241535510953, 1.1943423751718394, -1.623578143129395, -0.7908718740665778, -0.7958991591597613, 0.14224544678818096, -0.5874563910941875, 0.35674897259215665, -0.30454885623419437, -0.3411912865786894, -0.7721439775375649, 0.8957575071782324, -0.7855575943797336, 0.49648223864368174, -0.12582641267126593, 0.2862050592599167, 1.3417788337160632, -1.1036879686121794, 1.9613894180539484, -0.3988397787302045, 0.7271478331198551, -0.3826054361981491, 1.3869081759352357, -2.1233037056432886], [-0.09372117801665422, -1.1269646567003393, 1.9539787933032273, -2.4727092709936342, -1.1565863907048115, -0.19784579202069333, -0.4980559036446349, 0.5210686633830621, -0.40402265758660855, -0.9553378153769666, -0.39364320373291006, 1.7704420288109415, 0.47818448333557984, 0.18061679334038816, 0.7459156139960014, 0.7519394319334902, 0.17586458481118852, 0.36147804090590363, 0.07717255815698625, 2.320616545054843, 0.735896224159931, 0.0525642339025112, 1.889146985071369, 1.1316984904539749, 0.44862439143501825, 0.12565844706232351, -0.1732229472360245, 1.102402100274675, -1.083922925308746, 0.3298399954040982, -0.5929059783220441, -1.0622653214565219, 1.568402818452642, -0.8347248201470349, 2.282738060223906, -1.0136973747657918, 1.3105415352070542, -0.9024909982798901, -0.12937693415312435, -0.9900828423418448, 0.9059549763818784, 0.5756358264443725, -0.8094267801024672, -2.0839952096483336, 2.598288311990512, -0.8964150178979386, 0.14095789196112687, 2.052101090433616, 1.1395775035766547, -0.0961533510878199, -0.5591250711501209, -0.5244977894633179, -0.30577159540384563, -2.4003039348810695, -1.4169463973834437, -0.8330464959498631, 0.7572016094497465, 1.0396547650793773, -1.4492781668998398, -1.538144608148842, -1.8703635471670836, 0.1503227366827536, 0.7394345285104559, 0.2182648985320236], [0.15082056250850515, 2.559013007081616, 0.8094855426978304, -0.5955979287807561, 0.7553252687152312, -1.5494616407388115, 0.5327003552864814, 1.2176325142905287, 0.008810612876428871, -0.9304720748501626, -0.7113965703499029, 1.300342619519739, 0.4481178670033846, -2.7899194715862197, -0.8235830895877552, -0.19761532932793638, 0.20432230057583883, -0.13213738720446405, 0.7614428112687237, -1.3678885420257723, 1.3241588250743797, 0.8139923056559405, 0.38811169549416885, 0.7152476556924733, -0.19735599748935356, 0.9883543275632991, -0.9284766572074753, -0.36297256773403924, 0.28037311457780484, 0.24557305688897252, 1.757713030846195, 1.054981986361299, 0.6157491131781595, 0.2915797720926726, 1.5126419184519306, -0.5301775678395736, 1.0663394595495328, 0.08063151358829036, 1.4351478793213446, 0.051975613153404994, -0.03200066389508101, -1.1357076967450765, -2.3636399397118724, -0.014361355407649289, 0.5221775128778233, 0.508668319289592, 0.6361253563789108, -0.9974389989945273, -0.8378598065138637, 0.1222029398008307, -0.4551061537308003, -0.4224150461933976, -0.2676208248732004, -0.5882654983210545, 1.3243333435520719, 1.82549555632415, 0.6190897339985514, 2.4265976473612665, -1.2154597003275058, -1.629859611953211, -3.1275703223929647, 1.2223090166987733, 1.0908426082978988, -0.08829356307674627], [0.13068008306625914, 1.3176248554279895, -0.03790312970021408, -1.0460229559563534, 1.9516241971807067, 1.2029293750528578, 0.9582010079801512, -0.1148437776471093, 0.7119495775720499, -0.13791392366030664, 0.6554621832990805, -0.5374825734403316, -1.065715177640618, -0.9863823714494292, 1.0400656078454207, -0.6777269389254661, -0.6328230916330234, -1.168714200304363, -0.8646267603642905, 0.6683220822238333, 1.3830135270089348, -0.30942685205365295, -1.5593158520410608, 0.9986813405129358, -1.42274447027626, 0.7703395972944175, 0.39553285676029953, -0.6668825967815786, 0.6874996351117288, 1.0727003808808655, -0.6852941422770804, -1.4175056920699434, 4.070820341997149, -1.8459741115987276, -0.507859421849027, 2.2781732556206484, 0.19140014469156952, 1.3054218300013416, -1.015087586078691, 0.01984818746725245, -1.4738454490095811, -0.8802319124844671, -0.45460507786940746, 0.18257721536814284, -0.426244373136553, -1.5937446063100817, 0.5907818057188688, 0.297508024221358, 1.0613996385853284, -1.2188989263231795, -0.06291117095488166, 1.7462268527277112, -0.8849843883425832, -0.7187827925596321, -0.4387608735289882, -0.892751694704403, -0.976052471564898, 0.3049559512293372, 0.553869635092436, -1.0019865296028005, 0.3348524109191944, 0.22066280682759515, 0.13810798106994526, 0.515897686221067], [2.184516952595984, 2.3755085130202636, -2.0385467228380656, -0.6616505439734689, -2.0087833091279643, 0.8283318953511601, 0.0018650783517042916, -1.2542017002540289, -0.4385291144928149, 1.300037981157288, 0.43934041973089694, -0.6162619383149256, -0.7297318203847376, 1.0645525706602559, -0.90701168284614, 1.069139391098048, 0.7435255038609736, 0.5669568973795037, -1.5778614128220527, 0.665855449874023, 1.2111070908195927, 1.9671837883145618, 0.658288783070133, -1.101404548988347, 1.349349071262724, 1.133412333726162, 0.9629189754118229, -0.7540876141119438, 0.7499865032179797, -0.16851782904141518, 0.6163937494042724, -0.782816946127046, 0.3268899106603028, -0.3890071460702594, 0.9132075016769784, 1.036398005661449, 1.1798890787047145, -0.5135230226825133, 1.4969737823649016, 1.2011482831183558, -0.576829884262679, -0.26162341212281076, 1.0428904488051367, 1.424844762176714, 1.6529117477603066, 0.5466270447011649, -0.6045275361070961, -1.725825882648023, 0.7649306359979748, -1.757025905531094, -0.2946428111047303, 1.8290095814801717, 1.635488688378259, 2.3835390422211513, 2.346254882075228, 1.9921182748255015, -0.27114704537838813, -1.5382023035848842, 0.05202630441361467, 1.5715737999580037, -2.225717554183918, -0.4401770420142674, 1.367799008697319, -0.2812052813746394], [1.1689854747183246, -0.6019546052493097, -0.32767666827710795, -0.39961057653550086, -0.4546074324565411, 0.1798011117426654, 0.832785364631233, -2.12449318316766, 0.11827984265909858, 0.24433522736247315, -0.2035375812981883, -0.12014845820468766, 0.1784863999180283, 1.5628882900123142, 0.5701282935537748, -2.390217423436188, -1.9804184786335337, -2.6938782063835736, -0.5706363839166577, -0.07041255800596516, 0.562957360056798, -0.5626786765529337, 1.5725316269237253, 0.5451450979321062, 1.6782274097381538, -0.7159809346289993, -0.8375138489196763, -1.4764768816579403, 1.0501347724308117, 0.9019130517863962, -0.20290612515055337, -1.7864260157414145, 0.9384123967145576, -1.865928787972983, -1.5760649868034713, 0.832228049974913, -1.6295277706554465, -1.0554876407926357, 1.1865869869180279, 1.2891695456210437, -1.5253926697499371, 0.36990033975205383, 1.1415072675020332, -0.711567618894009, 1.0416722170493087, 0.28135931633396655, -1.1153948463260621, 0.5890711357806349, 1.3305948397978962, -0.6703764921434513, -1.0425463439580203, -0.6786889856220424, -1.4335208075687729, 1.4056435368599263, -1.9734591158522086, -1.2985151709071037, 1.1017862753401577, 2.4060347404763895, 1.0444306533551408, 1.0725753499127355, 1.4628967495484055, -0.19052010055406057, 0.7729216169221064, -1.442963539480054], [-1.9959903840372317, 1.7005764910764338, -0.8165141207715095, -0.4157733081179223, 0.01233308842703781, -0.13527983138313032, 0.04424927102944659, -1.8389378479887752, 0.9585936039310774, -0.3637601391059996, 1.3676063900884454, 1.5059569149087821, -1.0115448555528552, -0.9402179203026336, 3.521381672958636, -0.5672340130322789, 0.24471584276360245, 1.7225104519492012, -0.8274094973314324, -1.3994381020163023, 0.8318406486693755, 2.086029225706354, -1.534273604532545, -0.3523936473157383, 2.3054494573854925, -0.60915228933054, 1.0741123537967148, 0.14742667992372038, 2.831379550277941, -0.8581176257694608, 0.2631742302246443, 1.5784339846272097, 0.807596800629529, 0.6818892678143401, -1.9906278839452725, 0.24670969120078423, -1.0386020494164012, 1.0084677623316665, -1.843609525276946, -1.4015077866351349, 0.6789946257776917, 0.3932344440087007, 0.03944726603279596, 1.9126655058237036, -1.1349987977230616, -1.1737792688326265, 0.4380696960721129, 0.4969514967533432, 0.27843884587857, -0.3227460366006869, -0.7989405519218927, 0.3949483531809779, 0.4736583682460789, 0.6632070892115518, -1.487986066215531, 0.6442082508260928, -0.191470243531105, -0.29429131748125187, 1.2935483107215655, 0.21581970499733236, -1.2968241452339762, -1.126232372129739, -0.7474630870050696, -1.9953767138900915], [1.0101539178544787, -0.5931786481351756, -0.6206575808789352, 0.43400192137601723, 2.2731106993489156, 0.5488337453368075, 1.6615683267767385, 1.110538513039583, 1.5181548288253348, 1.5120110785907923, -0.4330906774397369, -0.9152805753646851, -0.007021996723031533, 0.29592767758898947, 0.6681778335078098, 0.06321371025235888, 0.42629964453482977, -2.731676951866472, 1.9190927943978624, 2.0525212910042927, -1.4669171182757963, -1.5800388549749451, -0.5490637053988469, 0.2980043746158145, -0.09025471241440063, 1.0612992340020058, -0.05115276396509928, -2.6489604382900476, -0.12411249557422943, 1.4897465077541074, 0.8125085889200381, -0.4385697766762801, -0.7243444024160438, 2.0306446914339067, -1.296996309802971, -0.05054287085666919, -0.4507709427435844, -0.05508068075559217, -0.3716374969858855, -0.01888903352386347, 0.5951069008896671, 0.1032766019696839, 1.1688335698304453, 0.9459311174059079, 1.1571049252468852, 1.5617523320036415, -0.5922803911037732, -0.9800407387220206, 1.1448829290697908, -0.8760771444530614, 0.6537132915327444, -1.662597988911558, 0.3987366066840744, -0.6415644308889912, 0.4464869645661378, -0.43207169886566243, -0.49184376993805556, 0.09209327069669383, 0.7856846448821106, -0.7529279405469507, -0.3865848192724329, -0.31905609453144257, 1.036109400252474, 1.5648082967487014], [0.6010389942342698, -1.1785126985631016, 0.5482767195939353, 0.048478767449271834, -2.2014019243303395, -1.8352644498679072, 0.16281104952552108, 1.669041237860863, -0.6717242576982178, 0.841799426265284, 0.4328478235994624, -0.08805152515623041, 2.321244215517396, -1.2831201499126486, -0.0807288026204552, -1.0741032555047418, -0.8012373100315116, 1.3998339177982744, 1.5442411076901918, -0.4747010552145824, 0.04701301699076818, 0.20965352548939417, 0.26409228089259323, 0.9761063993807045, -0.2670642966989141, 1.1879002078624905, -3.6256302587228566, 2.2474101875027923, -0.39538628129607184, -1.820987766833275, 0.6990637962916769, -0.19734640659977656, 1.2205886763249185, -0.36139024407857717, -0.2838799226747738, -0.820276168576285, -0.9703760645061833, -3.416399688499125, 0.6022945769481072, 2.458739364781615, -0.034939085893775354, -1.4310327092281871, -0.2490695647743784, 0.8771113411752451, -0.4767196139216433, -1.28407966377931, -0.6243802438365309, -0.8610367242631091, 2.2253565681188148, 1.5529490291471242, -0.20488158723727576, 0.8011324031710192, 0.26509085811365957, 2.768967366764102, 1.3822887969474247, 0.2801740379552111, -0.5575453004767709, -0.32142339531493674, -0.6488522889616173, -0.5267822332478037, 2.4422474459084906, -0.709447842567516, 0.012172554292801941, -1.6296528430246602], [0.33282959140348767, 1.6459962245689792, -2.8373764322145645, 0.3199570216888219, -0.5309767840857126, -2.033106798591519, 0.5743837095952428, -1.0361767696507163, 1.614065010551674, 0.22303252409237484, -1.1374112620790382, 1.7520433704940526, -1.8314065645722721, 1.0005874993263497, 0.22018669748672465, -0.13743851710607508, -0.8062631633285703, 2.2099927698233235, 1.54595686460139, 0.14834783506624286, -1.2586632812906227, 1.4816465298615464, -1.001446176920861, 1.1525321631855228, -0.9317326527689996, -1.2107869252065262, -0.18827032487505846, 1.3796453608130057, -0.42717785538346564, 1.9606515857432243, 0.786430559718396, -0.30929810504854366, 1.745642223655709, -0.27702102229065134, 0.44294512505547623, 1.4242406339872153, 0.8974646117959778, 0.8992670907516723, 0.04831029606664653, 0.3019882373622987, -1.3345669664884539, 2.4021905799501875, -0.2240469097533454, 0.5031327551055083, -0.11305435379051021, -1.1631872415806181, -0.2863134031477037, 0.17732359663541866, 0.9104840635961857, -1.0450539303095487, -1.7384234298173005, -0.5701446728964569, -0.4864665713299421, 1.2728840296779298, -0.3954182783944705, -1.719911855514644, 0.5255516927163352, 0.8601069374904361, -0.5214003151910206, -0.7812391658346507, 0.20762406908710787, -0.7641572297773466, 1.5440555707211672, 0.9664805984051925], [-0.3842831806213317, 1.5416283240674467, 0.7901851782596087, -0.514064056083727, -0.30696942755699896, -0.6951575024593274, -0.3021698567652734, -0.33489171907187965, 1.6227414984295145, -1.9480445656729546, 0.24462340579126385, 1.1950119805459876, -1.1949436415233476, -1.99524377835701, -1.4981367287939475, -0.4752789195340841, 0.39964262468582656, -0.5965664940834847, -1.2118046659992074, -1.5894775936118266, -1.9577963771477418, -0.7489360584957828, 1.108311658449315, 0.7879081002296904, 0.19466334125541834, -0.1495519440254039, -2.1247817213163938, 0.26547990575161057, 0.22156779604775553, -1.336708152183719, -2.2768373938723236, -0.2135701214609685, -1.9693916299704775, 0.9774643455834815, 1.4429100610947583, -0.48890740242624203, -3.050234488878357, 0.2729140041127657, -0.1292882794608486, -0.18162106883150628, -0.0413644869200318, 2.6719448454673174, -1.2202503208195599, 1.0901994877020742, -1.1049129836618683, 1.8000746181121734, 1.1665721127975965, 0.05003324317479162, 1.0593265284372593, -0.4011823606241085, -0.37658226141338585, -1.1427838843441358, -1.7821587964245036, -0.38939076134745676, 1.3648879234720734, -0.29239701834240434, 0.29442202324480743, -2.1335861444593527, 1.510607740918227, 2.9613229628110256, -1.2382169177029831, 0.22183068993531765, 0.17871412641359363, 0.9811142166261819], [0.6203645487051883, -0.20418765329388536, 0.3648206443161605, 0.4565158355839996, -0.16474812779513934, -0.7438405992914088, -1.2834300596454955, -0.9058657382296419, -0.47842919786029037, -1.1559794971182509, -0.9478505195389321, 0.13448751509688595, 0.6240723870832994, 0.34302623125073206, 1.924444758699242, -2.1662697831452027, 0.746087771065769, -1.4547087202182645, -1.2656234252375005, 0.9219374746098141, -0.5379049704020538, -1.224624106129584, -0.02035190723814091, -0.16837594810142759, -0.7898264727999966, 0.167312353387413, -0.03488117540909363, -0.3210658470179064, -1.731109399189532, -2.078591164015786, 0.3498440597446707, 0.9655724541827969, 0.28654914282726474, 0.5132706087868512, -0.6138731877281475, -0.5601972649059261, 0.19722640369609448, 0.7429694058316414, -1.3079418026417777, 0.7454311145018055, 1.0268298637584126, -0.1628653690031324, 1.60345221740945, 0.5393731010580555, -0.6409007920473974, 0.4517473247800014, -1.7452579883431218, 0.3184458156276183, -0.5447628153485087, -0.24181764227915448, 1.7041724793364226, 0.858838815939848, -2.938304396824393, -0.9871656817957768, -1.494620727879731, -0.15572679597891043, -0.8326913875078709, 1.4852473811249487, 0.2881345765224704, 0.0332298308100245, -0.6656061604233937, 0.17871173315472924, -0.7178710901805869, -1.9737513127727304], [-0.4284341255601019, -1.5513288598869055, -1.3166285974608987, -0.73429016578348, -2.0534798407558377, 0.9481406719794381, -1.8380511724262603, -0.7066747782791125, 1.4328121697642753, -0.3544554689642405, -0.48611638762686593, 0.9873663030871065, -1.0404969603119496, -2.3346617270836667, 0.4912838151152062, -1.1846976903486006, 2.3216068439149264, -0.3907095921371915, -0.02862908477471092, -3.25736939503507, 1.948798558320732, 1.2214084037174158, 0.03559304804055284, -1.5238158895996157, 1.8943942136418919, 0.6004197604262888, 0.04066036233627763, -0.9961386324348787, 1.004889082687653, -1.0408452496985723, -0.06665819642015285, 1.401050303345117, -1.626933860662343, 1.7163884060211783, -0.7456293121437, 2.273444000183941, -1.2441395725275017, -0.5138366660465504, 3.141153352835153, -1.1240276827038262, 0.8576684882997897, 0.02985782601945317, 1.0979793848253578, 1.084894546526836, 0.2988254993866788, 1.4933447216455047, -3.0282291555578076, 0.671775211246004, -0.37347959793134816, -0.478446596619985, -0.04014752910010622, 0.8184887354572848, -0.9831773993730376, -2.34464833493302, 1.13271123203589, -0.5116631317655104, 1.5689366354024834, -0.3638539583591126, -0.347040676594637, -1.093785237525943, 0.12897220195558953, 0.9189972012476654, 1.036171879990402, 0.179842456079068], [-1.1256999137165218, 0.9795295046192277, -1.5924497112486713, -0.017468368324729897, 0.7600348453629564, -2.092896272097171, -1.2358116966853687, 1.626927260219862, 0.7327806277737077, -0.05186955847935711, 2.185372982222367, 0.7699058762271248, 1.5965034013409143, 1.5429353502412817, 2.331591837961122, -0.011443814300719682, -0.8648864923635, 0.9101162552484857, -0.6394764966327369, -1.1651590830049379, 0.30131367463492953, -0.06253371517987627, 1.296599450901968, -1.6418293390915746, -0.8649269883976961, -2.5807269013173353, -2.230873356166917, 0.5879638270166846, -0.2996100523687056, 0.6628354670617265, -0.2136399350421359, 1.1026042497950361, 0.5262102099638362, -0.49154384961032216, 1.234192056835422, -2.003695085661354, 0.9784792871432761, -0.056124381967416356, 0.4157239139591621, 1.7756727149925409, 0.014099639690331773, -1.3458780698777666, 0.8672539598516229, -2.1623045714519336, 1.686847160492588, -1.4033943105957953, -1.8334396202152796, 1.9951480395348518, -2.002286217356824, 0.2573264438113546, -0.4400511899862003, 0.8013315757216402, 0.6418441176221769, 0.845147568835431, -1.1308347152530769, -2.4860480398931952, 0.5295768784313055, -0.9068476118735358, -1.6765392821968268, -1.0233630567524117, -1.059850207258575, -0.1957626984119807, -0.7249029113282786, 1.0294307733670536], [0.5956180744487255, -0.8398893314418655, 0.3137679153768935, -1.0159516563031399, 0.7831815822171815, 1.7832507141814433, -0.32784438433796514, -0.3517552851092774, -0.23726011160635355, -2.915586191350309, 1.9663536785229612, 1.3661753721459498, -0.8379907499095163, -1.844809521176594, 1.3515276627655672, 0.6363387021558203, -0.5392580578862757, 0.7780609078279348, 1.4660616658051173, 0.5329792994735744, -0.9397237981444458, 1.6793772191566627, 0.9444035277268146, -0.45101649318336395, 0.4800153504388257, -0.11555930543881979, 0.4556426125412114, -0.8524762577411982, -2.8749587450928105, 0.6268475770132503, 0.17712562970692808, -0.4340467042380265, -0.2689086741198207, 0.2759095266468024, 0.8340616154198206, -0.9332080449197246, 0.41737382947908164, 0.24199187179258286, 0.48702409090017823, -0.5977697816796828, -0.9841099594013606, -0.43996707398656243, 1.2145685259371415, 2.1347441765123434, -0.08324171238532767, 0.5170296177676877, 0.655525899910287, -0.706796505354339, 1.0545601395658621, 0.3364903706817158, 0.43862612314308524, -1.2570654464187736, -0.5205266626855702, -0.8583117261991176, 0.6167414234756179, -0.8138548793816868, -1.8810713990857006, -0.13350689520584372, -0.1394148674881683, -0.6393970455358481, 1.5871057311640462, -1.9025231129103874, -0.40928161216644054, -0.4489324403427527], [0.2192821370388902, -1.9533146432599642, -0.7382299282475755, 1.4497693934648361, 0.8684369653469238, 0.3515864414918977, 1.5905188422485108, -1.3261015261502545, -1.4748341417562703, 0.8199714639974004, 2.918127533149081, 0.7777011610777365, 0.2860017311523209, 0.15986263514178542, -1.2442789201487459, -0.33359945861819135, 2.9694343279603546, 0.10385085765851065, 1.9049428106623518, -0.44724032518651496, -0.15715109060398694, -0.685752923913876, 1.0436361293656666, -0.2624224665978762, 1.8050027128763664, 0.06372597312980247, -0.43824943465383986, -0.6396145889116084, 0.3284031414307382, 0.3781622774664315, 1.8119546582050963, -0.4498646802338987, -1.4090429041993198, -1.007548328669143, -0.036533517148633496, 2.674701903139147, 1.3019928322084087, 0.1746221939829951, 1.1264429598838896, 1.402022083202185, -0.7313344796084843, -2.3325431323382815, -1.3462333761703693, -0.3891957921313073, -1.7795878077144904, -0.11557209006976855, -2.131127991464577, -0.38745769595323365, -0.9199165436110389, -0.768558548639977, -0.05214302388846879, -0.7366168543131006, -1.8297309360697938, -0.4035136015142246, 1.065604940345356, -1.054559269005661, 2.216959409051696, 0.9251817147022978, -2.079116313924642, 0.9637269002205162, 0.6983643814650463, -1.9141251908501449, -0.7174943250740555, -0.22867990893230367], [0.941284970172615, 0.19209545892654736, -0.1039454720163406, -1.4180818909736717, 1.7901573041176626, -1.2653544875923632, 0.8881985827707544, 1.4848297145230598, -1.9432076856874947, -0.41922388316365117, 0.5274530594675503, -1.2849337443201745, 0.3769252545090885, 0.10580335630275062, -1.0514548157618835, -0.154913684674062, -0.9980982020521589, -1.186193157387739, -0.08693544839132776, 0.8407836714730264, -0.2887878142080211, -2.113242720222054, -0.678899918072113, -1.0466423489597012, 1.6962783800833967, -1.1913734861883523, 1.4425767618018226, 0.49601931829201756, 0.1418870495448359, -0.3500181014554262, -0.009170766865246373, -0.19507182775652773, 0.9579415329764125, 0.29708236371499486, -0.03300485889607939, 1.6004557420002734, 2.0268119307770918, 0.8951502094418895, 0.9006771963807827, -1.6293049477674326, -1.5235857020757602, -0.49272915008610774, 0.3970321692379585, -0.2677514826808829, 1.1882821425041505, -1.8307398540781212, 0.19345385940938006, -0.40500763849717536, -0.05234383019429847, -0.18021411771329054, 1.0998478619340815, -0.8624909180992093, -0.5228091478281057, -1.6927127980654217, 0.12906977842943262, 0.6424572204425303, 3.6030399999230402, 1.096542905626884, 0.805702989798295, -1.164692032311699, -0.16442070430375832, 0.11600914071640502, 1.669230918366505, -1.0312616276994215], [-0.4130772222098617, -2.7843677425184685, -1.30889022180737, 2.154724776379005, 0.47672526097450174, 2.3664606314018, -1.165446470230709, -0.22932614563324807, -2.1937554667106074, 0.23404402862710333, -0.5277403390151879, 0.2834450649874193, 0.1632836087783652, -0.7296246605738002, -0.49637650081946916, -0.3672867137666587, -1.3478401306540724, -0.6992413191747257, -0.3349065865831921, 0.36016753869997803, 1.8553445484759992, 2.029184559490348, 0.7416645788815015, 1.0102490042972272, 1.297675781424465, 0.6887615469579251, -1.0685876211303846, -1.073966907938318, 1.333078020417391, 2.8089974592238125, 1.3445785363927445, 0.4957132183858578, -2.4122808380593996, -0.7856746441554678, 0.29713325586960276, -1.1749600622080263, -0.8562916802400083, -0.9901899310771266, 0.43476644695825445, -0.9283138670840057, 0.6613447656750705, 1.6359228611112444, -2.281482569190483, -0.24734234540386624, 0.013149288246698249, 0.7454226703721977, 0.6042093614319693, -1.3807825298420475, 1.6790303409963894, 0.15760877657380803, 0.7331397861410095, 0.040680953373308334, 0.7104393591892113, 0.3643242998511731, 0.283264901933381, 1.2882484382907302, 0.3125301130100263, 0.05208476470336248, -1.5598677681730373, -1.2670416734039693, 0.6913020819999588, 0.8453537199436129, 1.1843637839633727, 0.984251940756468], [0.11794528467393972, 1.0331250782691734, 0.5414371872532889, 0.010221601253773133, 0.4142520457907838, -1.1034914296620701, -1.0769967802623226, -1.3280725005498024, -1.9044099605661826, -1.9188142636146257, -2.868786413783641, 1.9359100372324205, -0.07563638499271416, -1.2518917600255004, -0.4479215990096977, 1.7642387761040146, -1.4290964537932143, -1.3539193501636209, 0.4730518020499335, 0.8680972948041022, 1.794954503880069, -2.283505776225487, -2.7547065682476513, 2.299324769315557, 0.10778834168821966, -1.1812737610891901, -0.712949623442609, -2.3911031297722993, -0.7655819359414197, 3.059344263717036, -1.1152572653101553, -0.46995491278395923, 0.6919516170439989, 3.305598862555175, -0.4453644009270624, -1.7506664150738296, 0.6453272707975047, 1.8002727266792808, -0.9963116024426585, -2.1414392154893327, -2.3221491325825245, -1.294635329277146, 2.3719388060535485, -0.07370457137822753, 1.3899627090923983, 1.6392131105580432, 2.069730637305442, 1.6859416052233658, -1.9313951864906556, -1.8623406248646621, 0.48366944128457545, -1.3737766013094506, 0.20880608706444848, 1.1350992272017846, -0.11298558929959325, -1.2914615822551616, -0.601213095388851, -2.085011590765368, 2.062436273976703, 1.247453263129669, 0.730547808661758, -0.06816743940706275, 0.5728488448325835, 1.9044273815493689], [-0.7733674707693194, -1.2841946164862474, 0.42168432032094966, 1.0616508393091484, 0.7613296282727108, -2.0222917961643847, -0.07990306064246419, 1.711491164402332, 2.137491074358044, -2.137361612565611, 1.6497829484207882, -0.18090367649068884, -0.7680363317761616, -1.2470222979148191, -2.974868584205668, 0.16748979601521424, -0.625037661002529, 0.7776019733460133, -0.03940591205181602, 0.08994312400211193, -0.9563894682905935, -0.16495797353685762, -1.1601315763359443, -1.2149568798495094, -1.0133020418387766, 0.056171942713670535, -1.3009748710435376, -2.04864859024062, 0.6492208585568582, 0.23497720693643348, 1.102384702782437, 0.2834922768755151, -0.019576153392850036, 1.1217057295576296, 0.34645314252146925, 1.9171523654986034, 0.9136980751795399, 1.081399775318872, 0.323991992319485, 1.5994606044008153, 2.0308924178570105, 0.5935732631844897, 0.10364643601029716, -1.2038878337747114, 0.6960894229500829, 0.7194771717842131, -0.6136567811373241, -2.1980044490185855, 0.6239685132476902, 0.05906526062818701, -0.01691177104011077, 1.2315455440115834, 0.409164537862047, -0.03951533403498987, -2.5619339338817726, 2.034399022949957, 0.6977580660762153, 0.40629718869938397, 0.8255069106308645, 0.08119823518778684, 1.1531222047223884, 1.1263023883858834, -1.675802694619883, -1.1303328072157866], [-1.5583814536823226, 0.38956776039568036, 1.276630582156083, 0.4549070436753752, -0.18149279738316287, -0.0716953700002043, -1.3413038219879991, -0.242397099101709, 0.920994119973091, -1.2896534888968534, -0.8597394592617326, -1.5330883402803823, 1.247576445862959, 1.1093492678810664, 0.9552701101653908, -0.3060015058575897, 0.6189919800592693, -0.07771985735325715, 1.912851678897964, 2.3635505300685153, -1.4433447187009092, 1.1280896456810812, -0.29761440495518204, 0.9738046273861908, -0.4295186428660927, -0.1911764364612264, 0.3436934615060565, 0.15219905735188569, 0.04858712598295476, 0.059236012645215864, 0.2718235389397199, 1.293078774486485, -0.6026387058175369, -0.33691800068805944, 2.1357348162311687, -0.5509608374667024, -0.7963064420963413, -0.803940197411597, 1.0001463794454373, -1.5736800614062667, -1.508857637760062, 0.720765397499828, 1.220045009728638, -1.038786450395103, -1.516579814053298, -0.9943243004413022, -0.33195267873782563, -3.6496354813935623, -0.07048212195742118, 0.07032119931591109, -1.3739348000995262, -0.2643792944576711, -0.9296378442774317, 2.3387533799438076, -0.5058304797487518, -0.8051421434176085, -0.6728161109928957, 0.15293303248749116, 2.879423720857803, 0.22815122879045568, 2.4206189064862853, 2.1300464506265393, -2.9879776787905796, -0.8125752053353211], [-1.5245557186153091, 1.7811347995213553, 2.765913259652953, 0.9706885935309827, 0.7318084558952247, 0.22150868448870328, -0.5771450084966377, -1.2860660933876185, -0.38790140721525446, -0.6651377568087637, -0.7398328033286073, 0.41202054143853106, -0.5020589088271724, -0.06993361889288723, 0.3540042627370604, -0.1008935300894266, 0.0321017234009722, -0.8598896740577424, 0.8080647124899482, 0.4459465700463861, 0.5769454113610979, -0.7104047516120222, -0.18918311940181132, 0.498013060678584, -1.37134290103653, 0.6969459667838639, -0.006908539376602501, 1.062110677721329, -1.122901749259221, 2.1430621303876656, 0.20271672373780128, 0.10198674646581422, -0.8465372581810487, -0.2553493051433427, -1.3044032858183912, -0.8356713028557988, -0.02844768811399159, -1.1373624555079616, 1.9988548117658707, 0.7175554129579319, -0.9839604205556979, -1.0803913228123012, 0.940450571095022, 0.878487464287352, -0.4231734722524461, -1.1219597480047543, 1.766140138749605, 0.6304544232530557, 1.0924250938740028, 1.7165872477765614, 0.6452111778500326, -0.04144536595055317, 0.7463758643709517, 1.6212739559840987, -1.1902706055922543, 2.931999045417071, 0.5045256448083989, -1.0673640032096117, -0.3574470011876906, -1.419982516817705, -0.4233274542479214, -0.6557737612685847, 0.12440385805366824, 0.3549966299832717], [1.625252347863022, 0.9044186130403149, 1.4988948393687724, 3.634805983307195, -0.06283921958267408, -0.3716306335046142, 1.0520431238056094, 0.827271931081756, -0.9117834644858559, 1.1740365541689963, 0.629126885248954, -0.6789019005823494, -1.281871980936982, -1.3386234816385032, -1.4586621771527517, 2.316750714416478, 0.05043491605119978, -0.8222892537858487, 0.6008594607505663, -0.8787888315204186, 0.531390883147964, -0.26276342242487233, 1.6026681266663216, -3.216895473082063, 0.7496796716160667, 0.23363489226167083, 0.735437859755877, -1.6517783143691138, 0.88764522380627, 1.465045904720923, -0.19263148346290387, 0.4798612261191397, 0.22798952881915313, 1.2033626973717964, -0.3055189469150404, -0.48377085408012716, 0.8978781593697523, -0.8015431179586939, 0.35429525612930624, -0.4642648515223084, 0.255848243940078, 1.3047209102006698, 1.0167227572400743, 1.0064785384425932, 0.08246405595204745, 0.5545575878137278, -0.609914754562775, 1.562537937478461, -1.763725554579164, 0.1459000239029948, 0.3918128024070055, -1.3946325703974947, 1.6561521854733854, 0.6354434255097349, 1.5311148590509676, 1.1115535255186821, -1.8595214342192627, 0.0774125649187872, -2.1170382118456734, 0.7863025374943373, 0.35247803977925196, 1.605485729751465, -0.029629982573101208, 0.8344933988944162], [-0.892313244116853, 0.08593623360316512, 1.50955370407156, 0.7119482779745617, -0.05405028553178119, -1.2055076950673413, -1.1786305635092489, -0.2045734854708503, -1.0197483367752038, -0.6607359665062431, -0.5870517350840057, -0.7102700836809044, -0.5968389467569561, -1.774211960343497, 0.12655932782446777, 0.7859904821053904, 1.3101588910347959, -2.2254482080553455, 2.4650062947561424, 0.33505316091535164, -0.1338865388130814, 0.4971997874696162, -0.3266321705733329, 0.17131993657483982, 1.3829011137706362, 2.225127328351728, -1.2538683126876107, 0.08174445440818569, 0.7681368338439647, -0.7543649793978245, -0.5819436752115722, 2.2255664458283952, -0.08276745099888512, 0.8891815609163488, -0.3160966252204831, 0.32845940476797825, -1.8896294931930033, 0.9143395109771582, 0.317550480607343, -0.03998014620342412, -0.4131501876281485, -0.784043656766504, -0.7623731150930196, 0.46818169760402445, -0.4865460471250878, 1.9435091663977526, -0.21937302961542549, 1.661295574534695, -1.744786484206002, 0.4079547216365724, 0.29128642019774686, -0.7736738250779172, -0.4799998795261928, 1.756510891352846, -1.7855428740787718, 0.012459382308892392, 0.8939517323473144, -0.7660848616899538, 1.196536658849976, -0.6906413735482704, 0.34560614357967867, 0.8474291808481509, -0.4285716811272204, 1.7830620496838636], [-2.5427099993704676, 0.3996256317477633, 0.06619398446758266, 1.6944853380857556, 1.0315378931297479, 0.5367781382688575, 0.28800552586846384, -0.8127366765205752, -0.23792490071882472, 1.5180996775036257, 0.5262021845652081, -0.6782416765544329, -0.3013013729409625, 2.0021997672680794, 0.3180197548930214, -0.15720189161029793, -1.5542231793937438, -1.9602323624141618, 0.28826711392581744, 0.5625420202024507, -1.1321749393681944, 0.22264337265022163, 1.2573924790880684, -0.9378992783577111, 0.04472652282483778, 1.25771598751047, 1.3047387800617793, 0.2675012415043383, 0.9946717677636767, -0.32359522557032366, 0.45311488743136996, -0.7870667537252161, -0.6956767294819125, 0.07802050639341514, -0.25445612900729425, -0.5889557838845794, -0.46751385584120964, -1.394042886126749, -0.020497679888764442, -1.9136102906592827, -2.1160711268702515, -0.517556610593052, 0.7235863151204041, -1.4742421715449303, 0.08625460278994726, -2.891385368007651, -1.1169975146764763, 0.635766428778438, -1.3557734837683892, 1.2610135830871974, 0.6790414410669654, 1.4810286564647632, 0.4081590109501539, -0.16194009223076744, 0.3817527843070715, -0.26966433606341594, -0.5475159048212096, -1.9031500543349946, 0.5876254255061999, 0.8768164168823057, 0.400048690920223, 0.4256382091172627, 0.9192917526485892, -0.00014030574815973584], [-2.1958327657683494, -0.32897318485990634, 0.6526150997756842, 0.5577491635711695, -0.010439740773768972, 0.4536875742548697, 3.0564822124428117, -0.47095804880607517, 1.258252642140909, -0.1556449702716835, 0.37833707072334, -0.6079013762075524, -2.689419903021357, -0.5302666553055826, -1.2068563802433838, 1.0057537756266253, -0.3194440337878382, 0.38450616928301923, 0.035682182127599556, -2.701807038649493, 0.8962171186744375, 0.3894019359605825, 2.103818282422909, 0.809918518131481, -1.3618999146335584, -1.1487329219888172, -0.8646781932671651, -1.1043615715540995, 2.9452774258223617, -2.1381414451647007, -0.044520798998284775, 0.6900880216993179, 1.6787546575183732, 1.0189736652076589, 0.585182157738802, 0.9894215939561566, -0.006097123520946818, 1.6946788126129158, -0.569220685813035, 0.23022175075897972, -1.215350530793903, -0.20516448465882675, 0.6092407088984599, 0.4274133157374732, 0.6374004417296143, 0.7420770506031654, 0.8090480542501062, -0.3527637036089024, -0.30449517031019957, -1.101669752400788, -0.10122525145219635, 1.139844243017985, 1.1816548008477477, -0.4267371413726607, 1.497981095066539, 0.16745296616854477, 1.1394005759995662, -0.9252372741227228, -0.18691487277318566, -0.2711210463560319, 0.12218006117822508, -2.2575263479979655, -0.9580047824479536, 0.194644458819346], [-1.253640683169129, 0.7929983776125104, 0.30760919337244397, 1.1192752800592627, 0.892192151330124, 1.2272734139719434, 0.28157596536216245, 0.551521981779819, 0.02342079005960506, -2.0372351352421867, 0.24048893108338124, 1.0325576647864185, -0.18481842264942844, 1.7322376262288754, 0.3461272917046375, -0.2194416738809096, -0.05056236429094598, -1.0182163373430826, -0.17287607326105406, 1.367238201396296, 0.775506244888623, -1.2311545723188935, 1.341556805903927, -1.778279852440891, 0.6382627835246333, -0.40383139437617743, 1.373082301225603, -1.3496377839301166, 0.5056714616011654, 0.6712132186703017, 0.03668111943871825, -2.641638071074187, 1.9682600500804823, 2.3744317271182873, 1.3680709772877657, -0.8144017660887448, -0.5236488973164811, -0.11386522016292444, 1.8532900076858811, -0.41326072409224657, -0.3655796760945865, -0.19412758029702495, -2.3036483824323137, -0.232614242593478, -1.004814569833295, 0.3280241841700673, -2.98985786739977, 2.6797089427755023, 0.457161730566908, -2.585222523392619, 3.293777117708651, 0.12719090414722145, 0.0003412645994143211, -0.09209668255298892, -2.68145442535897, 0.8096514776693099, -3.0460801918772358, -0.545758469215914, 1.6906937177773524, -2.849419721968129, -0.5595953283897065, -1.0462569100029846, -0.7209438772446028, -1.4203319083378783], [0.1991538897890236, 0.1415917677544015, -0.24871662321278779, 1.5175064611611944, 2.4170064390084325, 0.1820096702575423, -1.1755052331512619, -2.285575438067125, -0.3035370036728587, 0.5752530632916303, -0.44660944405691483, 2.055308156482212, 1.7436478844907268, -0.22684941043655552, -0.39779875113332247, 1.7274899378660942, 0.27206628326382754, 1.3075625135664934, -0.40451824267310915, -1.0002682599964072, 0.4372673557958104, 0.7270787801349868, 0.09489086581296363, -0.13829726188850916, -0.3347050069202247, -0.2035494046595172, 1.421732351476761, 0.1974385673899362, 0.1835360337437307, -1.7007080769674443, -0.2292509430259391, 1.0442257876144356, 0.5218802733729807, -1.7910360766085374, 0.673671253748401, -1.7346868437947243, 2.798885389128469, -2.811762292633482, 1.1678919012466586, -0.8472044263509958, -0.43025401309657957, 0.5026458700446043, -0.1081010744821494, 1.0432611257345545, 1.3232733169635018, 0.7580338055545535, -1.0753928225536555, 1.4061053454054118, 1.052292459184479, 0.07581366959063338, -0.11675434400406373, -1.2917979268376, -1.004456590842847, 0.0429324849048513, 1.4062458036799907, -0.049653309864065354, -1.4467226402037123, -1.1867684250882053, 0.8687119761361943, 1.0963899428689834, -0.8154860922470604, 0.025927729793835234, 0.7055656729042613, 0.1027787042195442], [1.2654067353338714, -0.6236395534028497, -0.3141750759026475, -1.3757421366631926, -0.16638530401046994, -0.1945906731491107, 0.11145998396668379, -0.809065234486393, -1.5895382503544253, 0.8800367448648097, 0.23174195475087261, 0.9870658556854097, -2.3024780030200542, 0.6472977671157113, -0.38034459077033617, -1.856809965040555, -0.8159389516392513, -0.1797260194838438, -0.4346841128888802, -0.6277787877331421, -2.127953813980649, 0.657077148477199, 0.7576085016421099, -0.6556229869967708, -1.9837014064382308, 0.8499690102681178, -2.2127187182842816, -1.933929080630924, -0.5886765711851879, -1.8717147179380966, 0.05367680126156655, 0.009782859518173386, -0.09286604510965137, -1.7105323772351213, -0.7692355293385091, -1.1639362095360473, -1.3947658202820132, 0.9112872557836205, -0.0990205499860109, -1.1347073653226947, 2.0676824861164516, -0.7134977783460393, -0.6411699983838858, -1.6258554808600192, -1.5835534511651488, -0.10874466102044729, -1.8199955661621308, -1.2810772028032007, 0.32837601037738334, 1.7503421401882464, 0.3059965840433723, 0.08399714886923676, 0.7205648748561331, -0.6164876802517455, -0.6028177658510082, 1.16523724454417, -2.0379401317313373, -0.7099771263419099, -1.3542292331795986, -2.4296662727990355, -1.818214735116192, -0.6259676430229114, 1.3152578286608743, 1.1472795533961344], [-1.5255071970398904, 0.3310991962152815, -0.20132800068748494, -0.5547626748196811, -1.6118983328721275, 1.2365572549033348, 2.478996088521337, -0.3930415444511346, 0.925144140731891, -0.29667977915355087, 1.0452060341861966, -0.33154989939228907, 0.22735221534502822, -1.6538393566562108, -2.0263281518443, 1.0704371500124903, -0.496406515325031, 1.105171125283305, -0.2737940624583003, 1.1181567732659277, 0.05109319733123737, -0.41920809321080904, 2.268233161179586, -1.1215537557317743, 0.9196339612206952, -1.012212439913429, -0.21434019309416605, 2.050769893395302, 1.5919058155370898, -0.501930700783834, 0.36092250688757854, -1.230033075759791, -0.44274196199452814, -1.6381072874766427, -0.16520552367584784, 3.1176908219193664, 2.074301990207917, 2.7407545157571525, 0.9128190516761683, -0.404600853746898, -0.3210364937065104, -0.5939845022344558, 1.1941353460883166, -0.28167478866382645, 1.8379972431893763, 0.6673858547291853, -1.03106960428783, 0.944015391082428, -0.6398380257474768, 0.23972385356683995, -0.7359743020385942, -1.1725782534459754, -0.2510786827933732, -0.07453436558456102, 0.23063189247755925, 1.392854911719229, 0.8460223116237978, -0.2927745424378087, 0.14036641630040936, 1.9962900008793767, 1.4519121009279474, 1.475350216487008, -2.5633512494818196, 0.7227219239749114], [1.8119217734035182, 0.07558289533577346, -0.05439389630280056, 0.812210159130342, -0.3159082503047069, 0.20922906413806588, -0.6386716860113629, -0.4927439112533116, -1.328013010931815, 1.7825490469885275, 0.6282341271563626, -0.4485592168904355, -1.7735939459283065, -0.11373915884133097, -1.5707497649013913, -3.2054146074354763, 0.5176773941201643, -0.16622500631559917, -0.655718316314766, -0.309135396321667, -0.04517780543518222, -0.8225022203977126, 1.726899508065265, -1.6287295486324314, 2.15441442354849, 0.17503572303221024, -0.20250541455091509, 0.13719982822204455, -0.6417189069016402, -1.1124500307619225, -0.19016838505409245, -1.5299051145279612, 1.0295925936162447, 0.23306408209752463, 1.6669370078139114, 0.5272683240947738, 1.1987778453501323, -0.5960795440632822, 2.0930951304212058, 0.9925492511568702, 1.1987780606049152, -1.2560196973281808, 1.3510894539170586, -0.735960348218244, 0.33979235524332035, -0.35631955192271214, -0.2837024443472959, -1.3913509139313371, -0.8789532174688433, 0.08762186567593358, -2.770159272170879, 0.12933250265086893, -0.4952456991833598, 1.0007069412211114, -1.9370527282477128, -0.18334575611239343, 0.40802461786371086, -0.5475878032259488, -1.1417815216412406, 0.4545463769229455, 1.030614001427816, -0.2085254509077661, -3.959492230350203, -0.026776440233071692], [1.019690090929504, 0.4877164530010164, 0.014378893319477353, -1.6676920326645088, -0.44254950425248185, 1.8380017746013653, -4.5382171567375496, -0.182189004942093, 1.592315963859047, 0.39945427301540337, 1.6159243608704141, 0.11566922534165687, -0.7168613339765809, 0.4498879597325167, 0.5060723385809976, 0.04123219255362384, -3.474310114834793, -0.588655981269155, 1.7615687043191361, 1.4251290353415769, -1.3685165601548914, 3.3075051744646924, 2.1609592992407674, -1.1047000882884834, -0.8476244746927557, 0.849725345962464, 0.6182517675522189, 0.4978197876661263, -0.9850008743618275, -2.637761653463044, 1.1701322337783118, 1.0592647088352358, 1.5789278322113947, 1.1456158875768032, 0.8010591309411893, -2.228393760346537, 0.15542422766340808, 0.10532582524220993, 0.8967100569406179, -1.1390207653849342, 3.3101662762460493, -0.7063853151110225, 1.5326577526096106, 1.5106925030260747, -2.46387104665778, 0.7839791353741435, -0.5268364766837219, 0.5863257286776535, 1.5452703555818639, 1.1442853996048685, -1.0474058270635007, -0.1454942084683339, 0.7348475275611556, 1.07916385655377, -0.6853998336278909, 0.3969197327926994, 0.16221536311930104, 0.2858138907104079, 0.8346189766830665, 1.681880872737332, -0.5069932872343306, 0.005410353499535959, -0.13005130179077798, 2.129331657643242], [-0.777719522630044, 1.069671977154387, -0.07513874961481724, 1.3412654332197311, 1.9019260834353129, 1.0844623023129107, -1.3560022775409437, 1.389551118961904, -0.39315330835813295, 1.0955105448924687, -1.5138531290463355, 2.603647357528408, 1.4469675106028113, 1.4074004529919923, 1.6864092243422526, 1.2694233403135862, 0.0521393953245665, 0.07736603429224974, -0.6790525806310427, -0.6576141682222442, 1.3635055835849732, -1.8202691323669844, -1.1274083323213395, -0.8575458368488774, 0.28997396265287156, -0.634185499500553, 0.8635266366178453, 1.8724713765963106, -3.1405843184267277, 1.4879677444955572, -1.0931062676485175, -1.0246394194469646, -1.2297551312389088, -0.020151940975782285, -0.8207165982685372, -0.9583737472773266, 0.7211754088679516, -0.83716523089753, -0.6715723299620203, -0.5772097524506219, 0.8613415318654802, 0.21770167075987967, 0.5482158873197976, -1.3037458358409724, -1.3211804581849687, 0.8556158269806032, -1.437006200381398, 1.152576173350163, 0.5668703980109138, 1.0356111464875692, 1.106163211657872, -0.49410459358866393, 2.293333270612201, 1.4886665323805184, -0.6072364860109805, -0.41697221599211026, 0.17104644648519376, -0.6508952793923514, 0.05229326293736019, -1.107341780087604, 0.7789835179440984, -0.27908808296047666, -1.0173308817411895, 1.427310076067084], [1.605408980266118, 0.08375335262140655, 0.3556336242661229, 0.29407033677512584, 0.47465529198413914, 0.46381812793826355, 0.41768649455393503, 0.7262242014450268, 0.8855522454513632, -1.4442321432382912, 1.6592209431401979, 1.54541615940328, 0.9385426771042027, 2.4396843146073035, -0.03357857293186704, 0.4237090223303264, -0.007233182766591058, 0.3283935763136624, -0.022045427546144473, 2.5429864391896646, -0.06330789642538263, 1.5089293937627373, 1.8592413251924946, -0.4393556613749591, -1.7014805639983424, -1.0525674487954026, -0.28686114541441576, 2.447501363651706, -2.2118607412918485, 1.1501979174845482, 0.3537500862899273, 0.787912626402097, 1.689328763798314, 0.5966990093001163, -2.217155123603702, 1.2346845479825228, -1.9116924822644872, -0.07565200981209207, -2.1128348847163325, -2.248446227556474, 0.4879547796835356, 2.131829290882074, 0.9491749313540345, 1.468619744511222, -1.2145861575675256, 0.8853725361594278, 1.1397240226532004, 0.7722866423215569, -0.90416287375845, -1.089155572399189, 1.1967273641341833, -0.20634038550139722, 0.9594111343495637, -0.03262748965914884, -0.3230668305457524, -0.35246260394260576, -0.9411384565924192, 1.1037796864686986, 0.691513148170317, -0.7861814107263847, 0.8717046509299173, -0.284043118890577, -0.8874299318440161, 0.8155605301629594], [-1.675475673737158, 0.8099039971025956, 2.372020561170417, -0.08858886736353726, 0.46225879766342753, -0.4469801943963816, -1.1868264252336942, 0.7530867542983529, -0.08201928754427286, 1.3499454291990909, -1.0414052092732184, 2.50501593748323, -0.010529791877614422, -1.4004822534212111, -0.35917485509329566, -0.44971490756684057, 0.3189028317168236, -1.4044573222998458, 0.6388042610898248, 0.9575272081032171, 1.936665728787428, 0.45343214377911145, 0.250823751682628, 0.14414246991855018, -1.4043391723698977, -0.8441189707335737, -0.3936893075842434, 1.3779741769715532, 1.472151627317503, -0.5824756455531029, 0.5345901018873361, -1.1700511380779957, -0.9762925804912561, 0.8463458516268771, -2.4275627451972386, 1.0275705801570183, 0.625995368544974, -0.683353634069042, 0.6750049047749425, -0.7250716685876393, 0.4793104528865845, 0.40833006568113295, 0.8748744742521799, 0.4989870605288095, -1.6104124509709339, 0.18129509601802654, 0.44796224105810856, -0.5204891793941332, -1.034268302052027, -0.5159512554579869, 0.6424492202655948, 0.9326303336577884, -0.38714091875376033, -1.036280760243349, -1.136974183215204, 4.232495016868518, 0.8677767140669571, 0.5397840052883506, -0.48265470251841847, -1.0921972458766736, -1.7030963553161211, 1.0715845878822865, 0.6118907412045617, -1.421700472123455], [-0.569032376515396, 0.6641510260830038, 0.14877412772454487, -0.809937189649435, -1.4878017192248334, -0.09000218957198791, -1.08992198024515, 1.5376155063446408, 0.7699433547556697, 0.18333716263969124, -1.144712668384309, -0.7189574061635525, 1.2039277043773777, -1.50295255438411, 0.298170828144147, -0.9431119947042395, -0.0595898397767065, 0.2697377469969871, -2.5443324270838614, 1.7517727642223726, 1.1665317226323866, 1.1450921610126874, -0.5793665869100185, 0.9443198045351057, 0.6975729883096794, -3.445515394849625, -0.6825756852579712, -1.1016826155084947, -1.9730792319535349, 2.662095325512921, -1.1476876085852794, 0.22230442841605855, -0.19385001150320716, -0.5569945306070787, -0.03782026870388147, -0.9558428533954552, -0.04136896887447993, -0.9142179827416743, -2.0400109565812596, -2.1953265728305227, 1.6635459354985656, 0.7606870907815259, 0.11958810915539832, 2.2344353239901382, 0.24518120408154737, 0.9468763731910184, 0.8809314965172619, 0.13588605708287307, -0.2403355908883025, 0.15624902662151555, 0.9626268641717359, -0.5419261265725884, -1.7630646781849522, 0.19952410408133017, 0.6020972270431728, 1.542716946956134, 2.085953183863161, -0.7448073636751428, 0.5404606566922431, -0.2636061470738696, -0.2918603504294718, -0.04607761371167444, 0.8129321976028222, -1.1351478070872494], [1.2751493058971386, 0.7002974522805723, -0.25733165899967286, 1.4781481734819841, 1.3385103804505258, -0.7101665578754185, -0.8913166798902886, 0.05543365508872146, 0.7590849531932624, 0.676206354924044, 0.3420695516097006, -1.7095510890828856, 0.6633211293043111, -0.7746033232322272, 1.0040182702217781, -1.9381483768839365, 1.1920603720892933, 0.10959439039240676, -0.48770745093504947, 0.8285299034084467, 1.18325547967247, -1.3330142267014282, 2.897214333081989, -0.8345030418178683, -0.15532397871169318, -1.406630171537587, 1.5855269529811054, 0.42777629453629806, 2.435835243742419, -1.0150738155424992, -1.038707258427487, -0.8612555116312728, 1.0050409442311665, -0.14560455100950806, -2.1629047459873734, 0.595338354441383, -0.6957327635131455, 0.5837088246310349, -0.2538646385646166, -2.087561350987438, 0.7265411903186112, 1.2707981521558394, 2.4571943563802643, -0.26518690975224823, 1.3263684969056528, -0.8797508827039281, 1.4977295801932378, -1.290721137149804, -1.4652722675268839, 2.597133196150681, 0.6326457365629716, 0.19624831798801187, 1.1768285333497945, 1.4788125841189763, -0.3362764691969704, -0.5912501968090973, -0.03514609127044727, 0.6096141906082541, 1.8191805420179792, -0.3106918193344642, 0.8315636401691984, -2.343234126119128, -1.459546129982014, -0.46248571972683516], [2.579710533518042, 0.1077220323523832, -0.48426653008946713, 2.248289237350947, -1.3998987438688644, 1.0742578798764073, 0.6755135951301199, 1.3637595307421777, 0.4651808539910783, -1.6913765295575005, 1.6309321499265066, 1.6501015564616222, -0.4296423190205041, -1.9588062977249368, -1.2740194194260803, 1.4787034539778046, -0.19753681989917932, -0.6143159377996185, 1.2291757655869828, 0.04578479341947981, -1.6855913507058848, 0.7640768571499149, 0.8655533922806528, 0.34295217506156894, 0.6956200422768395, -0.9620619562403461, 1.694634358120973, -0.6008463191433266, -0.22461444353681573, -3.3470082185043, -1.3389067427137311, -2.0328424473436013, -2.491845064660436, -2.314493419830715, -2.1090223754480637, -1.2286992672167856, -2.5970412363976694, 0.9839811450009913, 2.1015512487232892, -0.6563096167361119, -0.8384190531584466, 0.4113553525898821, -1.342134428836332, -0.8407608522830022, 1.8698561562967497, -1.3527246761439142, -2.5515018905679687, -0.4170646637682822, -0.7674450929110668, -0.2773190010842338, 2.8085539844874368, -0.056346812986388155, -1.4877394337159917, -1.8194878612853234, -0.5084513426777174, 0.7790337365526346, 1.526832384751703, -1.439001445562127, -0.3448416510633448, -0.9323236136570651, 1.175350337006191, -1.5855620531306733, -1.4413219325991946, -0.989883987542889], [-0.011002029271111406, -0.46040008637302143, -0.10254397984034079, -0.2973976701836859, -1.1182959523433882, -0.12472546197399664, -0.7712872251691782, -0.38838602685407236, -0.5540276375873764, -0.6857607675031963, 0.41121177569496764, -0.3939295808816715, -0.7756246540227789, -0.3743197886780199, 0.07410939525654348, -1.7763445860858709, -1.2164509377909514, 1.0520337521688798, 1.3782910115859504, 1.0582175650882397, -0.8556011676695997, -0.6056566778562581, 1.4223393211885595, -1.1874791113593548, -0.2031194919190488, -1.6381711165148691, 2.541143575781127, 2.069164218171934, -1.3001136278907466, -0.3466728468920235, -0.06362300615088724, 1.4174853290550111, 1.33145291807793, -1.9430174274396728, -1.170830389029032, -0.025984532198257485, 0.6782517468370972, -0.5302381775290435, 0.08740170960274488, -0.7953650489512591, 1.1744177435944543, 0.8749918185851349, 0.31179131039893754, -0.6355262260254676, 1.208652411171623, -1.0967674270793615, -1.4404481615412015, -0.816123201473734, 0.2873008464491828, 0.21457476791037394, 0.09845144703187968, 1.1996384212065039, 0.8803912091330702, 1.080934944534051, -1.9925462210005416, 1.2083303784978012, 0.5210331992435492, -0.6857467165071705, -2.724371339496787, -0.4026651298558559, -0.364697622077989, 0.7743741381947625, 0.31195233142549816, -0.7484788385315958], [0.48799921831168014, -1.935760916275955, -1.2026324990843789, 0.3298349599486748, 0.39133371461630245, -0.20611995541236902, -1.4655950027678217, -1.1115803449908817, -0.7147409859569941, -0.6107017640409406, -0.5010299762404542, -1.3311923495190607, 0.9161649946887132, 1.269181754388317, 0.2753182914699977, 0.7419923241697739, -1.2995175418981872, 2.134303875653473, 1.4976566719663242, 1.304418966730586, -0.8289390331781272, -1.403766690599141, -0.6149117588979145, -0.6523789493784975, -1.2679027988324356, 1.0516123375240711, -0.6576352906063503, 1.321246995618813, -0.3408543952211334, -1.1883775152918628, 0.4467702290788098, 0.3259972189333119, -0.06122283478840341, 1.5099235624310687, 0.40660688626689706, 0.0002462666239859367, -0.9165591029400705, 0.5605010627205314, 1.1879687222750868, -0.9986666841986692, -0.3680494868474935, -0.752762784557001, -0.5749833305403097, -0.4249152510006074, -1.1560996283791218, 2.4043398926862016, -1.660728773265183, -0.20547934887116334, 0.38357572844029075, -0.12240562943633028, -0.5775743128657139, 1.4308220440228587, 0.29854335909923746, 1.8902483868521482, 1.0973462774543843, 0.5529327905959254, 0.10243119110873414, -0.19499096118145426, -0.7738776110951473, -1.4859684753561324, 0.1014044706542782, -0.7880482895276366, -0.360352203999185, 1.738055171586729], [1.083822533096473, -0.685812909262497, -0.8730829716044685, 0.25104376133159617, -1.3040810595972032, -1.0615696907705863, 0.8761444942808646, -0.39243892232561056, -0.042614847427560554, -1.9063306957188226, 0.5184073285683815, 0.2685076117606643, 1.521029221550591, -2.0986827540731903, 0.8748939820443311, -0.22249242727710034, 0.3777573791428143, -2.1040380366628213, -1.013469346494746, 0.6154642553201638, -0.7753157572909313, 2.477562441998423, 1.343320825167129, 0.4677932860329728, 0.030854852679173476, 0.9637285582482024, -0.34460825819020124, 0.4082490572968696, 0.7238615673912776, -0.0018735553834295516, -0.06582803918209672, 0.4721451813875738, 0.34673765998073497, 0.6063120837717793, -2.2759091095109594, -1.4979632235799767, -0.7343277147832307, 0.2109121788211823, -1.0228672321984251, -0.41278915619182255, 0.006081393414527428, 0.0013691651405060845, 0.5912116211725114, 0.14981260023274706, 0.47993808862911513, 1.6879289143717022, 1.754461879223877, 0.30397819502603796, -2.8330602532229423, 2.020323184560546, 1.1390111138458276, 0.2461237041749173, -1.1285163518580879, -0.767789897283461, 1.16763613847375, 0.37950218855040113, 1.9257309872298085, -0.5115411425842853, -1.099972645292621, -0.23220343995129383, -0.026318033986435337, -2.0106331132104223, 1.402660632868508, -1.077596603488086], [0.960511395311268, -1.5799377946264845, 0.30663969282603776, -1.5635582182069163, -1.757832732902745, -2.1132262238060178, 0.1303403392914272, -0.016276515925588646, 0.8637124580807948, 1.4454433162043827, 3.611745687815676, 0.2113295774429562, -0.8537493615981236, 1.168869733365948, 0.19349411074953038, 1.2482337149675573, 1.6312421008489384, -1.8904205640891163, -0.6570527009173496, -0.24599937252237275, 0.07113218458365245, -0.6285114229458021, 0.1914546518433938, -2.3607004283287987, 0.7673517971186504, -0.663041259260286, -0.09681144327610827, 1.7783105476607255, 0.5769549844391971, -0.1965356787471044, -0.16764905174683617, 1.642456817545023, 0.138402714493775, -0.7500657969119593, -0.8682100803418014, 0.6947161253297549, -1.9009695507971993, 1.5113610919912048, 0.906203039215851, -1.6597450333501687, -0.21549675504258153, 0.14629484538365248, 0.3185308026045523, 1.7901615786040002, -1.7966535116220792, 1.6775370950799622, -0.30478733386621143, 0.08667501501305287, -0.7313789471087996, 0.640104075125841, -0.13947781007815557, 0.13029293682227525, -2.4695695409547542, -0.4793302502114332, 0.14096516226799735, 0.044197756652732414, -1.0618545567875586, -1.6006945628526992, -1.5250771282701143, -1.6081689194284252, 0.6956679687642275, 1.0294362427303, 1.7814583336848677, -0.7332447174387691], [1.3678624063061562, -0.7260407042951368, -1.382592354139111, 0.04680339416731808, 0.12003198702724079, 1.1739074684415285, -0.04492314716823562, -0.5982711390846743, -0.3605522218291873, -0.8281896090615911, -1.7009883762663986, -1.3563644123840155, 0.7882807512696711, 0.7992029439600623, -0.6816681088368367, 0.39140751351815933, 1.0397484129428392, -0.6620154612202381, 2.290481302883228, 0.14297448441222155, -1.5805969203685173, -0.0664015646934336, -2.0785821944553042, 0.5742689909991373, 0.9758365027950536, 0.42364817656373704, 0.3178492727020823, 0.8121540246958606, 0.6217847756397793, 0.3188339533056506, -2.2307699265892467, 0.43659183019878495, 0.8698973746848123, -1.101462470370273, -1.0228678542157716, -0.9585342950140328, 1.1172203724702727, -1.5588479509390634, -0.039545671605469956, 0.3954985209241758, 1.2500755553281788, -1.5340814989266724, -1.3021798807232083, -0.7174202295418803, -0.0683555695519649, -0.2388873167980322, 1.1510226143324913, -0.6903980936662242, 1.2001455078581895, -0.5089495267242908, -1.2601169857847005, 0.15907840832734435, -2.1648118380627874, 1.2092933185047272, 1.9099214182891557, 1.704678849401175, -2.644724445246592, 0.43001878852719866, 1.4355236313938173, 1.2495209976482835, 0.10051221719316343, -1.368299045648234, -0.8617619504854904, 0.29692437310268244], [-0.21394886856051873, 1.7465741489187305, 1.0035698991563953, 0.7171355115452326, -0.49569140187175775, -1.3492131024256047, -0.4806973361295562, -2.3495392764845833, 1.9258735862317586, 0.35255107112918854, 0.3006875526942936, -0.9423035709755687, -0.9977954066073584, -0.12489503071473534, 1.4136247742059636, 0.8752082230610903, 0.032993167175086935, -0.39961620150885013, -1.4617041595914542, 0.02221598513832054, 0.729943930063969, 0.8835098391449524, 1.4119890922708591, 1.1341988987729434, -0.8467188894240533, 1.1442867132439176, -0.4006750722558636, 0.844348343748108, 1.8798978351416094, 0.28098841934071417, -1.947567368597396, 0.17276891598403069, -0.5248877065392188, -1.7240502866388336, -1.2703783235280213, -1.6309491694008307, -0.2696932533137991, 0.3221722006564292, 0.8152730333912553, 2.0275750880036263, -0.4869350923939766, -0.2909835759571741, 0.6629891142466208, -1.7595750571761584, -0.8097844178706282, -0.9209665074157533, 1.1057981623380042, 2.5371892884394613, 0.171535567657655, 0.06302863745337392, -0.5440924274114605, 0.6219366062954985, 0.09739396369921743, 1.0757097064145846, 0.2539267009673116, -1.4937639621993524, -0.25244456370299906, -0.40947106846323855, -0.8041330674566797, -0.6755434691240183, 0.5526903733311885, 0.7013495615243307, 0.8447483948479744, -1.0639410302517782], [-0.7304736382364005, -0.9924813849798766, 1.1800036329435832, -1.6525517509601577, 0.06984224932118328, 0.3286561725594275, -0.11553361033858367, -0.6090504188805778, 0.15375706451756696, 1.294363025154875, 1.2799828340935653, -1.3416016815903806, -0.600192853328399, 0.6686497669479268, -0.3553588949457462, -0.225495081803318, -0.14153407849869754, 0.15213669724435022, 1.780951008047197, -0.5333657567047891, -1.0612645909007854, 1.2265912652240725, 0.7514783925696483, -0.185691824732537, 0.3068227099806618, -1.1009100570314696, -0.4538180311734588, 0.9723270108490658, -0.8319712812227708, -0.14575871418572778, 0.33314825498354284, -1.6340358302465532, -1.0060424789018168, -0.4844779180921925, -0.197940701598945, -1.3506025478755075, 0.6160934742281586, -0.7447962389362301, 0.9804976268223359, 0.5280596664700368, 0.17887422510913065, 0.8819607034914367, 1.0345504613531142, -2.3279239762536665, 1.2186956881200548, -1.677529524269611, -0.09758458236193214, -0.21909929679906495, -0.3115036128579046, 1.010966297304243, -1.8471424786956332, 0.7605643061146568, -0.19256958856612236, -0.18929347132267196, 1.1491228534774827, 1.0246411370191988, 0.19453107255576474, -0.7987545369228886, -0.49419802571604127, -0.8290605716951036, -0.053893593169965476, 1.6860329313881683, 1.2637535562148927, -1.4237037489753153], [-2.007432852428554, -0.873334305053917, 0.5913675769803974, 1.7504437681939717, -0.5321126794512703, -0.6931367640719703, -1.7502679581275777, -1.4642439228130026, -1.4249093925402505, 0.6456693976701642, 0.5569387093000256, -0.7555986331434559, 1.6914222790733942, 0.5087798386410486, -1.0382402159719026, -0.9705740880770847, 0.3292042708762803, 2.5947991161518362, 0.8189560397484112, 0.8164542424116052, 0.20136466394797556, 0.5227267628654024, -0.3658479017559866, 2.2647567820107803, -0.7806661440210593, -1.3176617634930188, 0.9190524831882281, 0.8667194863124037, -0.5747054312288542, -1.3501458348883808, -0.7452768016209056, -1.4125822911195718, 1.383850012938472, -0.17524942506545108, -1.7371470638485915, -0.6520098859841148, -0.17278013647963636, 1.2728968185534937, 0.659751189337989, 0.1821005681066918, -1.2355854933078334, -1.4287980041326709, 1.0478259336180467, 1.0614014425119456, 1.7291480567633308, -0.2532010062126613, -2.567746642204364, 0.875277107911566, -0.18560713738641121, 1.0052245424621846, 0.34495809562157287, 1.0079409137813653, -0.6990277781585833, 0.338486526922224, 0.20193832587326782, 0.41582319427222786, -1.4795788967269012, -0.6183663233213742, 0.7757997150186482, -0.3749174171200304, -0.17605884868894864, 1.4729944052041162, 0.40231002276699196, -0.5500495432452919], [0.1780526898907215, 0.2568130721858782, -1.0903696858810876, 0.9578930333862632, 1.7747309355991232, 1.4206232196889566, -1.1042789807650835, 0.3019108987914405, -0.687479507783657, -0.7686923273189338, 0.4175627636146806, -0.1867900579478084, 0.7016325759650733, -0.5682561286455414, 0.23962209242533156, 1.2225772867303037, -1.619072535729758, 0.6244774624198525, 0.9118329524349157, -0.2856150765349428, 0.9450252136265564, -2.8525795877903652, -0.7507597785343146, 0.11979597000559998, -0.03662836359893535, -1.9269633025914692, -2.232797883469533, -2.691647028370979, -0.5640115768693672, -0.20185217855536047, -1.1331073223628998, -1.7680512332547165, 1.1975408196358366, -0.12958973076844735, 0.03475548546652816, 1.0455257731459944, 0.19765526597171637, -1.0285673800616202, -0.12351711017558724, 1.1326391699777052, 0.8231333992362696, 1.5529350031599856, -0.29578531254609935, -1.218509120111635, -0.3889240194726636, -0.33369028823538277, 1.8408445564767324, 0.9007331423940449, -0.11084470374422102, -1.4353841689575013, -0.46335033737487225, -0.018436418082446445, 0.07560249612081221, 0.048472280068900295, -0.22016342306636041, -0.32775139476582504, 0.32180153902604974, -0.6513070178442679, 0.5164407461746369, -1.0297045867387806, 0.3894630644619388, -0.5321079598833781, -0.0855809885414313, 1.745913029415413], [0.09351034776770857, -0.5820344059656922, 0.866275467164048, 1.9852295767898553, 0.7556205033399759, -0.6990064268230969, 0.0550546431022635, -0.4286625224835182, -0.7199794054991278, 0.38325624974933886, -1.2737271623433237, 0.4534449041307312, 1.555825349023189, -1.698947268867551, -0.1490191008171161, 0.43639171490816964, -1.2677955308625977, 2.143906564729988, 0.7767496359668633, -0.15368540497390193, 0.35538574292566394, -0.48173742163290967, -2.0795989213071273, 0.5847071876033012, -0.19190358185697767, -1.3226335608460498, -0.37756438059613806, 0.10415006475088251, -0.05787266757389233, 0.33253518965553164, -0.7647734555333248, -1.7038462936221526, 1.1133027601645331, 0.3703925818623512, 1.0794443200847033, 0.10735277007051905, 0.3890744942229597, 2.201578901453412, 0.3485682162761077, -0.675249910188336, 1.8771123410283586, -1.4175565719830707, -0.4679917591588392, 1.200471329595368, 0.2050456002842098, -1.0042993722297224, -0.7870342096994596, 0.01908062442561316, -0.07981301714747835, -0.3558740905217347, -0.8530746945888238, 0.019849230274871003, 1.8304432112521478, -0.27966729960616427, -1.1719517629774991, 1.9596736404782193, -0.72583718229585, 0.3023107143473162, 0.5539577588543513, -1.9786432442146906, 0.07021635118698152, 0.24744339103877624, -1.2987056837770203, 0.8168965334541395], [-0.5307101254354376, -1.2269322151536297, -2.7122505032265525, 0.3234272173487623, -1.1501713671542568, 2.662609106962241, 0.3181921339603368, 1.171063192462769, 0.9018808723622682, -1.3314973151046947, -0.7649949394341224, 0.33273713996356835, 0.5979940223032166, -0.3631398009808982, -0.4269467089241707, -0.7417844849262047, 0.5615683662758978, 1.1923993996505264, 0.6270582068355461, -0.9965605575810773, 0.14279487731846066, 1.3203537004179022, -2.0775018558308873, 1.1227540178936628, -0.6050441477740491, -0.3186154716958441, -0.2500976405889508, 1.4465358696333306, 0.8805225402987216, 0.9204207432582828, 2.132492871298703, -0.6549131432379103, -0.4510181371820746, 0.2019702166991298, -1.4333888364593308, 0.43716586306524313, 0.04707594378065075, -0.5242362826764752, -0.5659758406324386, 0.50066698467573, -0.003061869082179096, -0.8961323007712451, -1.9526445144225817, 0.15975350073269848, 0.8389939899699329, 1.1646629822813428, 1.3945656865050746, 0.5541983219124519, 0.8873300188771701, 1.230149532881859, -0.6669976314134654, -0.31009776912986564, 0.7976692771837214, -0.6275720612904103, 0.4653028601763495, -1.8405009248467339, 1.8761617968904272, 0.7757078789869724, -0.7766808682950056, 1.5614077298595626, -0.39798892251476053, -0.33856593970455345, 1.0750263656652674, 1.2855007085896926], [0.2657864350498253, -0.3646990028667374, 0.7564389831301934, 1.3862019518524238, 0.5480059784655236, 0.17774310870962412, 0.6257108025696773, -0.8784644274921095, 1.6480630850815132, 2.3240732983394876, 0.7009291990047961, -1.511669600995041, -1.353179006570097, -1.978487045390945, -0.7638152564902311, -1.1508355928140879, 1.9202022864921615, -0.33520497475911093, -0.22337719699691766, -0.9541524304686054, 0.36010044671059016, -0.4306715598721568, 1.728883527345191, -0.40806880772111603, -0.36713836445526465, 0.6979207354438358, 0.8446680567396848, -1.9972541066833085, 0.38275453316661184, -0.6696180268998275, -0.7621903048146724, 0.7767661027384736, -1.2673489489148184, -0.20351475761272433, 1.5406244939888185, -0.14503961899879825, -1.4875625418746838, 0.08982675961385958, -1.20406169597926, 0.22915939685399067, 0.8640822948694563, -1.9977266647621412, 0.5830566056179477, 0.023737218846602945, 0.6878669354517634, 1.1282121796537146, 0.9989166459900898, 0.6180513534992652, 2.790653286442429, -0.7515535492867655, -0.6859282451217938, 0.24559853042997404, 2.302848495189645, -0.3661955042338947, 1.4092236366970798, 0.5282501835324672, 0.34461231004140214, 0.5857415389308652, 1.3199831596999527, 0.4259845603624536, 0.5737487993266304, -1.8374302108577154, 0.9120710427522206, -0.6813292073766634], [-0.7757357776862133, 0.07181952207671945, 0.06968200382104092, 0.7180659080162359, -0.8164333902434319, -0.9491896877785637, -0.945142899213804, -0.921156172164419, -1.7472158386683987, -1.0748452033645461, 1.6219876196638108, 2.6207077667596255, -0.007199266997491935, 0.021180786204827773, 0.7921383395964317, -0.3520549827847221, -0.44643983229188966, -0.5968535178698267, -0.6173738981062807, -0.0884758237759211, -0.1887120916446553, -0.40215575858276, -0.5170140717210792, -1.1561071688750841, -0.9488736428313066, -0.4559753193777746, -0.514255948545023, -0.4585812704240475, -1.2671327020145224, 0.4274990030543429, -2.0782563981979583, 1.3483828148540653, -0.013267739175785125, 1.7028091507307244, -1.1893938394364463, -0.7805002408534275, -0.8967652280543658, 2.15975423664487, -0.14440255728569984, 2.301176780465029, -0.36296601473501655, -2.0097762322904233, 0.651398640849295, 0.17734678937445109, -0.4529438203839357, -0.9785069886424073, -1.3549677485294973, -0.49675840884779315, 3.692744205670267, -0.1472233140530545, 1.0004607442213762, 0.5734236731445506, 0.12316914327012263, -0.03903372209333151, -2.114521415111181, 0.4900662885974158, -2.1198509051431556, 0.04360792414664338, 0.19709743847412847, 0.6462164654277363, 0.4628655190504964, -1.194275317826895, -0.2686797751880805, -0.1068162307351259], [-0.28248821652077205, -1.3151116810525534, 0.20126857444801607, 0.1979888077325789, -0.4543008083903, 0.5028509496774508, 1.1495826099602235, 1.9737616898229744, 0.11996958609620294, -1.7165825204082552, 1.7703156990811046, -0.12268608508183215, 1.8539109877186961, -0.8982812184782795, -0.05543284951274381, 0.6993712134959222, -0.7942130577473694, -1.3910150957695304, -2.661850155715814, -0.618358530950322, -0.2075627445427368, 1.4478319790397935, -0.24400127446615474, -0.19905017679881704, -0.8625828273738875, -1.4470192358978915, -0.5791999608017554, 0.933916444404039, 1.1420763218492063, -0.40249784563890506, -0.09844292183520949, 0.1971060933289631, -0.410495988602116, -1.3076041707480606, -0.14356997087803117, -1.3235324781219353, -0.7172790422610047, -1.4077691783941422, 1.0205596595623743, -0.03397124114122178, -1.6145871859535865, -0.3995952530880951, -0.9350757453370819, 2.081428579927375, -0.5504511623343976, -0.9497388157248938, 0.276327185750019, 0.5374317990354274, -0.15547986677790515, -0.4185238824728738, 0.12082413016410255, -2.231241908942652, -0.8946339507613211, 1.7630721067776067, -0.34493172169281366, 0.5681987251122008, -0.3566571197803552, 1.3811545902756481, 1.4170760056307563, 0.6823360518735886, 0.9672598536941874, -1.9860180316952933, -0.005356861622282325, -0.7658086784581957], [0.0009649892552955612, 0.8925860673835563, -0.8841769953454711, 0.5650387385009986, 0.07612787863195189, 0.7128086473760368, 0.3335131188609774, 0.11824318887941358, 0.10762961320650521, -1.313112687297989, -1.2823804257240858, 0.978362428488711, -0.6508368233871523, 0.5576293415146134, -0.22756673163103552, 1.0482424279079308, -1.5238733800556477, -0.501313932375325, 1.0101631164714213, -1.1356499992811193, -0.38814023379674517, 0.34147729768966417, 1.7367120828558313, -0.14916990418679407, 1.3783645830776832, 0.957993835099053, 1.0850590020690245, -1.5723276480021047, 0.27586303927751826, 1.3072045437188153, -0.16607875160353677, 2.152773107933574, -0.2638413504354489, -3.4057424345697305, -0.8582368325123262, -1.1428374223574058, -1.520434035607817, 2.19436462591838, -0.25889698803864264, -0.7316517766986961, -1.4126001870714027, -0.5896586694120433, -0.24472968059914504, -0.5225614755221621, -0.7936120669146873, 2.0358927677964105, -2.574374477016019, -2.02617540460955, -0.9664383612439964, -2.3961548527597643, 0.8205211302510098, 0.35366966950158674, -0.32694614608893674, -0.1132213638357477, 0.2756692830647463, 0.6726103618557703, -1.2716285258885436, -0.621965345735261, 0.29028325689644474, -0.9397347254316916, 0.06782394107323227, 0.07292309630649713, -1.493873427149943, 2.7365080566328257], [0.1529361915496815, 1.2762029918241484, 0.10408028076279603, -2.1052064706997027, -0.10495192387548015, -0.4522344322793387, 0.30809361550740905, 1.4486950482093974, -0.16377272519613453, -1.7580346934254432, -0.3913673765301395, 1.5510855816836933, 1.0263550050800903, 1.8566347403080115, 0.23592555507660687, 0.5734442691147428, 0.20741867499665861, 0.4277335354365021, -0.84630897194479, -1.69999515252994, 0.6031336294253768, -1.8022116556434198, 1.6536128007502469, -0.6873123906517005, -0.519735684985657, -0.8760517314119816, -0.5693154750481457, 0.8396862936880913, -2.1965994978784824, 0.54484899922669, -1.61645672468806, 0.4450227815684841, -0.27199452902363574, 0.6552677707201592, 0.23464517336273324, -1.3798233120070684, -0.25041003037750936, -0.4692672170133681, 1.576624598856011, -1.027805457112265, -1.4358775801274912, -1.3300967864775624, -0.6198876392022004, 0.40913232174998815, -0.5119416321437071, 0.34063895232326574, 2.1773543083140687, -0.05890776643170415, -0.796651053105485, 2.2021479135276927, 0.08094654347544165, -1.8099093722263093, 0.3169058141677943, 1.2187604869281614, -0.17891825755972499, 0.9128931959556684, 2.500014737216047, -0.19073872183497012, -0.6816956820394375, 2.9482351356500986, -0.07584320735860368, 0.7752683816438327, -0.9837222627793664, 0.2547885654464886], [1.932919321351039, -0.3517608209038843, 0.05011501832683188, -1.0518302580772183, -0.7330008184205121, 1.075135783725226, -0.3777348441206173, 1.7349210620305024, -0.16264145018153053, -1.6059608170933657, -1.8820383322110652, 0.926777083774344, -0.5104232932210749, -0.20214941383225973, -0.30151607016566145, -1.7437285977991237, 0.6130423310177683, -0.5155047988977034, 0.9897158557903578, -0.11647839556817946, 1.5177900007146428, 0.4359349958365749, -0.414036625416797, -0.9224439960833206, -0.5056500155007446, 0.9186826858566153, 2.304609849540789, 1.2336587720346157, -0.20721136749996888, -0.6938362818605308, 0.24029451875967464, -0.2086516214554277, -1.5179195956545741, -1.5003273344549768, -0.19068100436949045, 1.0192111910458228, -0.15630697691369816, 0.18487614301451338, 0.39416385251598957, 0.7017762737976289, -0.969367731794267, -1.0227812873282607, 0.5281581911111135, -0.10545475906199085, 0.2321861812456289, -0.9784339474507028, -0.28719388331515033, 0.38891139927741997, -2.914099896603189, -0.1322004796700431, 1.6945835407172418, -0.20515882880304534, 1.6798829345233162, 0.6714306649877915, 0.46744794452220695, -0.6903525347639391, -0.2629856992507517, -0.8550807227260047, 1.1177341283713647, 0.4703809947504995, 0.6998273002206366, -2.3674138332190333, 0.39065139690357337, 0.3963216599027204], [-0.9378710455898168, -1.2415681015509503, -0.010394348490109364, -0.026801863023458307, 0.549116613800822, -0.35138804535354773, 1.822945041735883, -0.6772007357471374, 0.8508122544409639, 1.7758472527236222, 1.377911465542155, -1.1643335851102474, -0.5031588872358043, -1.4811338179743465, 0.5099391058750992, -0.0009471173890723576, 0.27057098456268197, -0.5962518455977234, -0.4361707377976807, 2.763922586943336, -1.720536519055331, 0.10935734971062216, 0.36994022909703206, 0.8604637314102911, 2.409699404991726, 2.0944427306966866, 0.14650530086495328, -1.1252825085783276, -0.08623775436870644, 0.09231654284140467, -1.7657230934584514, -1.3526339639973015, 1.1219472325824786, -0.8680195862556122, 1.2011821103772222, 1.116403518638001, 0.9545853483636546, 0.7423916420899798, 1.5161605074628686, -0.7430936584829976, 0.64819600365079, 0.6740810835153365, 0.022976472276156745, 0.6157545640231458, -1.3628697024429484, 0.6733583152605547, 0.9332416449806656, -0.8772434296734913, -0.41720046733117205, 0.025998162753312848, -2.188520997561794, -0.7886206589693306, -0.7939724479295627, -0.569493516479634, -0.5892647312055942, 0.7130977492569774, 1.7605911449668208, 0.6299714512488118, -0.5333235110135988, 0.6613219287225045, -0.3918128778107649, 2.096138482505389, 0.10240280942767838, 0.9890148749421575], [-1.0735013968260385, -0.5445867858301268, 1.5547182670769273, -1.1912132678543583, -0.7075137731249886, -0.17868988942478833, -3.09955022741595, -0.7689984643107456, -0.8125462890762329, -0.9178137135729092, -1.0056600335363373, -0.10945907184877715, 1.5628221107521527, 0.12422264628955167, -0.564019563033315, -0.37532760924428793, 0.23007587623275252, -1.066721914369486, 0.035166574049638404, 0.46144087246945464, -1.7534906906682295, 1.8766578551215247, 0.6822434107404831, 1.0351651195531755, 0.9718902597843981, -0.29122595905319054, 1.0149723153977526, -1.2495942360339098, -3.2067731312927505, 0.5339850960157696, -0.05751377228013445, 0.5067319226377209, 0.20864205817845727, -0.04104944761110522, 0.0682178774601921, -0.8839599416184375, -1.37843100621181, -1.1014230235338713, 0.6490666756232023, 0.8286692627912675, 0.1679535419378786, -0.28072799599038556, 0.859052369454971, 0.24953635068740898, 0.4789976220493099, -0.71674113302751, 2.905721315476479, 2.2764621864865227, 0.7364528219603644, -0.6332345453376839, -0.31871866399577453, 1.5212878055661871, 0.5712585466046699, 1.9602453117988219, -0.0007950429710107756, -1.3174749486170014, -1.6608448590222713, -0.9149744775949066, -0.5220671324392304, -1.109272335158897, 0.9666898218871368, -0.18596685438923105, -0.6476026907446882, 2.573006902664905], [-0.07193890754224497, 1.6051633328402297, -0.9004095728112795, -0.5022708835351647, -1.3423667637048213, 2.5983214633261893, 0.13544718900265396, 0.369032408280298, 1.8685025398647832, -1.2079566067659737, 0.761753877064228, -1.6081350396029792, -1.6849853534338388, -0.5024706613732839, -1.8559311676909795, 0.5312520913073492, 0.17241282713411912, 1.2147989453572565, 1.779578624959761, 0.4770664220717156, 0.5579997523969287, -2.378970540043878, -2.0192285881667362, -0.7717159897170194, 1.0862050777693477, -0.09072580358398251, 0.7856154367737713, 2.6310924124754993, -0.7378575305325323, 0.7559827336517465, 0.03290416942520182, 1.219315630970227, -0.8325814430141388, -2.908150342690949, -1.0164725170438318, -1.0152976688466404, 1.240868791843986, -0.11788261701463491, 0.33425490443686073, -0.6865505626902154, 0.6591227546170044, -1.545060153320808, -1.3522853242875994, -0.3275998913783798, -0.9558453928023867, -0.6804491977895525, 0.3440176137688718, -1.2057321941233021, -2.63123529534881, 0.8151985077089897, -0.8312973406033066, 0.6598388918459012, -1.1951461250062618, 0.765858146430483, -0.1256507290461878, 0.13382317108877118, -0.8978820494366608, 1.0296906143663032, 1.097087349115725, -0.4867101696168276, -0.5534398344160263, 0.09282442899428629, 0.9091527290246194, -0.9532453198671813], [-0.3435372806391851, -1.1618321443494557, 1.3490147865184208, 1.3369163883279969, 0.6156724600524341, -1.70761853996752, -2.2125696715910292, 0.883534346983359, 1.206419221143299, 1.646706881516992, 1.327697691479015, -1.2437403271096557, 0.9445513037067617, -1.0386406614126587, 0.9502551133170334, 0.3614402034201895, -1.7449312701135884, -0.10536133973462634, 1.0173743379120086, -1.4570049181659672, -0.2865516261587701, -0.5905141273445714, 0.720178860649082, -0.0062178169464584005, -1.162197780267427, -1.2446978787104022, -3.903986933933087, 0.5923459420810325, -0.18889728265147648, 0.043379610887754654, 1.163945773009898, 1.1811419998913422, 0.7500287560167946, -1.6925624271929036, -0.5853534659822557, -0.28604859792096904, -0.4791518768280812, 0.14639551207289736, -2.295906057749408, -0.12025391993436808, -0.97077356768804, -0.111444238106651, -0.3832378905309987, -1.2658994430575514, 0.3869821361461339, -1.0477367979996985, 0.788354886750291, -1.0286836890387654, -1.6085691873287797, 0.780735697610926, -0.97633330749595, 1.0083596080896597, -0.858648431318449, 1.8026161198500879, -1.989322938407432, 0.7228175588783067, 0.9844191474285897, -0.7530463082417039, -1.2918010895634295, 2.801860276395533, -2.8658515469488184, 0.5729272085251033, -0.6902771303266845, 1.7988130739326562], [0.9466605825762382, -0.6640085795998354, -1.281576928966284, -0.8082211424669601, 2.0421666938102248, 0.31998939443601926, -0.11123130599625335, -1.5148257443338369, -0.012323849003211915, 0.6250883037604476, -1.2244305604043961, -0.2983837836839775, 0.30323729861846555, 0.05026122475951697, 0.6657313405688261, 2.218920458802092, -0.9602122626367289, -0.6405065023717037, 0.0778680033543392, 1.5028645051896838, -0.25578629934566055, -0.5048367552084952, 0.6888382416496361, 1.7895746236437937, -2.199525398965108, 0.6895550760033742, -1.2007879102857821, 0.3121522279715872, -0.5099770688098315, -1.061598044145727, 1.0089928084327067, -1.8629296505807005, 0.30150205630564325, -0.8570944159629986, -0.3609865969524885, 1.3210582701652585, -0.019437286306845353, 0.4197248212903256, 0.04348769606270981, -2.4894540693994185, 0.7432354073546844, 1.0127624804219468, 1.2839785222469324, 1.7842419326932408, 1.510652011267749, 1.982042718198966, 0.4287660079836171, 1.434457163185945, 0.2902069505616408, 3.2590505986194125, -0.147727693238703, -1.568406976514928, -0.07466172484044158, 0.5057186907457448, 0.9925973783944354, 0.19275698349176984, 1.1413083595765154, -0.006349771175708129, 0.26608340830925087, -0.19166753896396013, -2.438860692514601, -1.6131466807802588, 1.70490555796519, 0.4993270628121257], [-0.3010812139297823, -3.1540477085351313, 0.24662884629132098, 0.7181321029718096, -1.8098800737756902, -0.6641479023098568, 0.530166779261193, 1.8925563984502582, 0.19428992947450896, -0.6466286383741308, -2.101559220476281, -0.9508214459227654, 0.5976724993332866, 1.7500548418356863, -0.7228092617717495, -0.16537589624836058, -0.37734116968846865, 1.7017630389056715, 1.2514363367143673, 0.7878179085298322, 0.005034506999328191, 1.265102204126894, 1.7591500945565945, 1.4864349672161448, 0.2356785346965565, -0.7846425135734212, 0.11051800448049309, 0.12404903635656817, 0.5097098326407113, 0.5852677201284737, -0.45377645720367743, 0.02881652266266034, -0.22002531512543894, 0.367745765637011, -0.8252843804443845, 0.33183627176203334, -0.9678032232505881, 1.388426869028176, 0.031806530422348385, 2.5286743784458054, 0.8415903363744287, 0.8674207934445425, 1.2903070439239557, 1.6166946421700201, 0.9256440605706707, -0.2546558039809701, -0.3537283552993404, -0.2780620918685041, -0.7454042766413153, -0.004354208027231896, 1.0126761972248195, 1.4536030761115677, 1.8157485953548622, -2.137982025920511, -0.9514687501906568, -1.69937021600353, 1.3339348970781397, -1.2056511033312716, -0.10525379007597233, 0.36488337015615663, -1.9874964221898042, -2.3463614995782858, 1.036747558320594, -1.4392130563491454], [0.8189172930457785, 0.8003968343945927, -0.021681889352318667, -0.5984868545189855, -1.747442958950795, -1.0278453893371344, 0.939514986727068, -1.1176567322144302, 0.18628466483561903, 1.8429928203601444, -0.24342328578407038, -0.1766334136804453, 0.5158669400467677, 0.4085725702464052, -1.1467739718106489, 1.1195652270122234, -1.6803744116416082, 1.3341146766718521, 1.3263225976717592, 0.7653552413998435, 0.08328017605681247, 0.3066834014550434, 0.2161539891344151, 0.7239680767158672, 0.22315914750196805, 0.37854648238684224, 0.8888098666006246, -0.36599862932306, -0.2655031428879375, -2.427891092402864, 0.8796198669202657, 0.06546877823605514, 0.2632233937796224, -0.27905084398491387, -0.2544375349982721, 1.2015829815373253, -0.06515768294675912, 0.8145584705710228, -0.6165750717945054, -1.9515699181153237, 0.5278318339018582, -1.4044074442547307, 0.9451120391540395, 1.4723391087414996, 0.8869429926085195, -2.057886788275787, 0.09275642065093147, -0.35501111292490384, -1.0587500672145773, -0.16902258084665617, -0.9917410958590729, 0.036980703681011785, 0.7680945784939286, -2.0351167944943476, -0.6478837544059849, 0.5858575091031643, 0.5492157287452263, 2.6146954563508986, -0.10059818076835234, 0.8568559075424248, -1.0999591623040006, 1.0499388614756482, 0.964900676433056, 2.0118160749056893], [0.36363235201268485, -0.20631400873630315, 0.4835126762987302, -1.1707511525360863, 0.2053544763937672, -0.14219015144078814, 0.7121637856404592, 0.04176699243474262, -1.0319829328346408, -1.5742358593123391, -0.10357397957385342, 0.1851205637036772, 1.1036639058653868, -1.0572558692607803, -0.3748971088801678, -1.8328882791489303, 0.3077248934528714, -0.639312733063923, -1.726703317516705, 0.2443361795277314, 0.05190409558553773, -0.9576682542018906, -1.0343834774319332, 0.5969024780310445, 1.3387977941187807, 0.21085328934487846, 0.6470348899299917, -0.20021065146332073, -1.2501573171077716, -0.8187496471586019, -1.4312921584011433, 0.34671491385961184, 0.1515223511064524, -0.4012777757177743, 0.020899571076585265, -0.4694450171801303, 0.1993465331941276, 0.9933065740967174, -1.514751576724577, -1.6416593345525357, 1.855123326167633, 1.2096225730434955, -1.445800727158008, -0.07735841267461414, 0.18755284963385008, -1.756585718265812, -0.42528277008585147, 1.3227229819057915, 0.2667897230861503, 0.7474712244842024, 0.579822654546756, 0.12610585483494727, -0.2591331712512805, 0.3412698775419985, -1.193685149038853, 0.11954318936201426, 1.0839402031940446, 0.19624595326338548, -0.24431284863304611, 0.8569114637206819, 0.6446088969083679, 0.5465097516939069, 2.2366138122154493, -0.5186712729191304], [0.679182719718197, 1.079890360539717, 2.0809519147718656, -1.161347359474109, 3.2307246858027816, -0.3820227638412835, 0.9876948115800728, 0.25535167934265296, -1.4482157333040249, 0.380000931208691, 2.244930402298717, -2.144959120374457, 1.6199701060213718, 0.09500458565519465, 0.38186914161116575, 0.8094850152605835, 0.708208159829917, 1.1491463450662618, -0.9439601657062866, -0.12366232179630277, -0.7635804018026471, 1.0590546543071002, -1.2121263388412518, 0.8398780794564663, -1.2583750485688066, 1.9167255643380252, 0.48472161418818205, -0.45659865257291277, 0.4717724186649239, -1.7730559008445477, -0.2111385980825512, -0.4095358051430706, 0.04488995099836141, 0.39825430421913405, -0.5192148345093721, 0.2667351725138008, -0.1552162723138237, -0.6936037023224463, 1.9698524819002423, -0.22535307050375755, -1.226056908490087, 0.44731665032468765, 0.8830606598246777, 1.1673301391065871, 0.22811882065334035, 0.32802655027282773, -3.182276408591898, -1.8357478421360431, 1.9475711453274116, -1.5022084504050417, -0.6200368230931674, 0.1456492908400869, 1.1769346883396088, -0.9555988040414132, -0.6039092889753864, 1.8073818242647148, 2.618118938070439, 2.2163814861846967, 2.02706382614734, 0.75987540034881, 1.91455951316304, -1.7331247152002953, -1.6675696226479777, -0.9326920997944663], [-0.30295028144421576, 0.1210566195368233, 0.12203252859951039, 0.49632218297287134, -1.690672193289664, 2.5767480051094602, 0.5869165749475478, -1.1906838277707819, 0.6100009090250349, -0.5431054135789772, 1.2071936288615752, 1.0087092101348827, -0.2821272828120255, -1.8293454411370091, 1.4585828968163885, 0.9180876397570188, 0.06865813445538994, 1.8134557494830919, -1.9729475990394891, 0.006180295289374549, -0.05025352419236685, -1.6193186032132594, -0.5344591693580474, -1.0438479996137522, 0.9421095071640261, -0.9473668631805252, -0.3797791588351316, -3.0077027405390915, 0.2854425063274627, -1.7141317358397163, 1.1572542569843358, -0.6786068815678375, -0.8916419687541041, -0.24010964595893763, 0.45687151495567274, -0.0033076559560112004, 0.7763036964857715, 0.054611256403950134, 1.4192607884712831, 1.5387725461931012, -1.6303169941583175, 0.5365437052869425, 0.2667917795718854, 0.3146048064741775, 2.541370694393653, 2.073544003726185, -0.7653576809424528, -0.6520870363792387, -0.6119313236329906, -0.4220471305802039, -0.972763776613449, 0.07928739854575102, -1.1213355469050852, -0.595238783076985, 1.0459042090656796, 0.36144443070351356, 0.5864657297380204, 